tree
version=v4
num_class=1
num_tree_per_iteration=1
label_index=0
max_feature_idx=62
objective=binary sigmoid:1
feature_names=balance transactionCount sendAmount receiveAmount tokenAmount totalTokenValue total_transaction_count num_of_normal_transaction out_transaction_percent in_transaction_percent max_val_send min_val_send mean_val_send stdev_val_send max_val_recv min_val_recv mean_val_recv stdev_val_recv max_gas_price min_gas_price mean_gas_price stdev_gas_price mean_transaction_fee max_transaction_fee min_transaction_fee stdev_transaction_price uniq_send_address_num uniq_receive_address_num zero_val_tx_num zero_val_send_tx_num zero_val_recv_tx_num mean_time_between_tx mean_time_between_send_tx mean_time_between_recv_tx highestBalance lowestBalance num_of_internal_transaction internal_out_transaction_percent internal_in_transaction_percent internal_max_val_send internal_min_val_send internal_mean_val_send internal_stdev_val_send internal_max_val_recv internal_min_val_recv internal_mean_val_recv internal_stdev_val_recv internal_max_gas internal_min_gas internal_mean_gas internal_stdev_gas_price internal_uniq_send_address_num internal_uniq_receive_address_num internal_zero_val_tx_num internal_zero_val_send_tx_num internal_zero_val_recv_tx_num internal_mean_time_between_tx internal_mean_time_between_send_tx internal_mean_time_between_recv_tx time_diff_between_min_balance_and_first_tx time_diff_between_max_balance_and_first_tx time_diff_between_min_balance_and_last_tx time_diff_between_max_balance_and_last_tx
feature_infos=[-0.019911547394401298:82.706124280240303] [-0.02563302281344702:94.099808850729545] [-0.032764212076346506:63.875403782057525] none [-0.14146309480032654:52.676103311580789] [-0.0089282689356833568:112.00446419621058] [-0.02563302281344702:94.099808850729545] [-0.2057479421498703:8.2132283036722118] [-1.5031145649080775:2.068014780236819] [-1.9335649791109548:1.6726252518441915] [-0.042318898952096388:98.864574801388827] [-0.028900542639525472:104.66446800121246] [-0.12165657890374203:79.430900614907884] [-0.15222077818623792:60.815790957233339] [-0.10087598812821935:65.632436301753174] [-0.091311378018012521:66.61298652595346] [-0.13521513271303212:58.981064235983446] [-0.14072784853145584:38.004870882460466] [-0.065616531394706329:88.163813686617146] [-0.80721906575416535:23.696224473487636] [-0.88034387352581189:41.118247493717249] [-0.23524170236808215:89.635836042516672] [-0.19939433576319726:86.723390026455235] [-0.055703997893492778:108.40741983088627] [-0.44625278125162288:56.333739635417622] [-0.20171585683253851:37.912421815280041] [-0.081623275568455389:37.017976833744136] [-0.099959192969401756:33.874425755052968] [-0.10529462263194701:13.91603239405222] [-0.084845184753582367:20.594610437501395] [-0.064696177657708673:18.923706126502051] [-0.2651827072656876:22.582541077584441] [-0.26099974718030627:20.890689225401246] [-0.25220629133027617:21.292329544481213] [-0.034161507175649322:58.389562599984821] [-0.020707542743980845:86.713148755303308] [-0.064637615027445999:19.387020523679912] [-0.31741218041705871:3.3215768934346652] [-0.43191335213564575:2.3891359648377235] [-0.024215920054943978:90.489568738561374] [-0.030431106210192876:100.31030680423075] [-0.029248891724953621:81.168892871509527] [-0.024201881071857053:77.355414834280737] [-0.032844741905834918:61.493770690855293] [-0.024250604456975237:98.745185703750039] [-0.023838228398304521:103.32057237726004] [-0.025252243237412774:87.899045551043869] [-0.12260538255905398:45.51868485924107] [-0.098694974815191128:58.258985783275428] [-0.12232728303438725:55.429635416231889] [-0.11276429305558576:49.518437232993513] [-0.012732494964975459:106.7024933504193] [-0.028731207421708684:87.803643726828199] none none none [-0.16021531482840776:26.628103782057693] [-0.22223870555784708:12.817906029237413] [-0.10763792071431937:27.233959906204873] [-5.7390516249757431:0.96878213859461582] [-5.7608867809736548:0.97538625695028935] [-5.9231421807923308:5.6571329733298032] [-5.9517232554505277:5.6445170108636953]
tree_sizes=2152 2137 2133 2132 2143 2144 2138 2139 2143 2148 2151 2148 2156 2146 2163 2163 2159 2148 2152 2175 2162 2161 2153 2169 2153 2148 2160 2154 2151 2176 2158 2168 2177 2167 2172 2158 2161 2163 2169 2170 2162 2157 2171 2152 2176 2148 2174 2164 2152 2155 2165 2166 2161 2169 2150 2157 2167 2156 2166 2158 2158 2143 2151 2160 2159 2168 2174 2172 2163 2173 2165 2172 2150 2167 2164 2156 2145 2142 2174 2143 2145 2176 2150 2164 2162 2179 2133 2162 2168 2167 2178 2159 2176 2157 2164 2156 2162 2165 2178 2159 2153 2157 2156 2169 2174 2170 2162 2160 2161 2160 2168 2153 2161 2173 2169 2175 2187 2173 2171 2167 2168 2156 2158 2178 2175 2156 2179 2160 2184 2162 2178 2169 2160 2188 2182 2180 2173 2182 2190 2183

Tree=0
num_leaves=19
num_cat=0
split_feature=2 19 20 33 20 27 33 2 19 27 62 7 27 61 20 61 1 60
split_gain=2676.99 1040.11 2268.73 846.057 617.713 295.946 285.013 263.38 205.64 202.936 159.651 146.533 188.911 124.054 111.964 104.611 101.941 86.3157
threshold=-0.032731682835130164 0.17291475526454039 0.0099728427238999825 -0.19035433310009345 1.0000000180025095e-35 -0.081241461103817955 -0.23333581444769966 -0.032761937271713747 0.29342025519327825 -0.084644685079378626 -0.19569188591061062 -0.11271825463353627 -0.06422534122601449 -0.23766308445398485 1.3491182612437385 0.10627457565812749 -0.019744024284772625 0.17620815593804681
decision_type=2 2 2 2 2 2 2 2 2 2 2 2 2 2 2 2 2 2
left_child=1 3 13 11 5 -2 16 -5 17 -9 -7 -1 -13 -3 -8 -11 -6 -4
right_child=4 2 8 7 6 10 14 9 -10 15 -12 12 -14 -15 -16 -17 -18 -19
leaf_value=0.099708788235927659 -0.64560617763610595 0.10827705677257049 -0.10834800269871514 -0.070760321897471501 0.09818418003916729 -0.12930467627478054 -0.48824073253637978 -0.5377072457686296 0.10853222769248599 -0.10680875660083103 -0.52828741189563799 -0.5620044718093079 0.043875452435282625 -0.58027535418848397 0.018759568425267048 -0.54477720855748446 -0.64228994681822227 -0.54389715324204924
leaf_weight=851.01130431890488 746.04063391685486 10.668210178613661 65.323563560843468 186.5775445997715 88.258561983704567 73.434169068932533 117.03241847455502 148.65126603841782 349.09259529411793 105.31300677359104 88.419554382562637 31.648426651954651 58.883464425802231 553.13224840164185 20.470496669411659 27.514346525073051 8.1211928129196149 25.229502126574516
leaf_count=2563 3035 32 216 607 266 245 450 582 1047 348 345 125 182 2199 64 108 33 99
internal_value=-0.333358 -0.146059 -0.301686 -0.0352727 -0.517755 -0.59242 -0.22792 -0.255035 0.0388674 -0.377181 -0.347266 0.0739746 -0.16793 -0.567247 -0.412762 -0.197531 0.03579 -0.229699
internal_weight=0 2413.05 1003.45 1409.6 1141.78 907.894 233.883 468.056 439.646 281.479 161.854 941.543 90.5319 563.8 137.503 132.827 96.3798 90.5531
internal_count=12546 8108 3593 4515 4438 3625 813 1645 1362 1038 590 2870 307 2231 514 456 299 315
is_linear=0
shrinkage=1


Tree=1
num_leaves=19
num_cat=0
split_feature=2 41 8 20 19 62 24 27 61 4 2 27 22 61 33 11 27 2
split_gain=1772.46 844.665 945.625 467.589 659.166 389.669 379.368 274.957 221.194 192.296 134.127 118.937 108.667 97.481 94.753 91.2517 88.7108 94.0369
threshold=-0.032716843724968733 -0.016918645020435115 -0.24110007743827247 0.11656684275574741 0.17291475526454039 -0.24240866710396988 0.12847461571723601 -0.060822117250453812 0.056570081397211709 -0.028282595358081298 -0.032133347211264589 -0.081241461103817955 0.5440819999566936 -0.21690927807837437 -0.18145852957569072 0.28792899366922958 -0.047209221348211046 -0.032762111358975492
decision_type=2 2 2 2 2 2 2 2 2 2 2 2 2 2 2 2 2 2
left_child=1 2 9 4 5 13 7 12 -5 -1 14 -11 15 -4 -9 -2 17 -7
right_child=6 -3 3 8 -6 16 -8 10 -10 11 -12 -13 -14 -15 -16 -17 -18 -19
leaf_value=0.34063871735510171 -0.27750647440203186 -0.31137179804318299 0.32425921897775428 0.30780650306229163 -0.20893902006814613 0.070906607290587953 0.33598232640087256 0.33510872682440551 -0.2249059075512696 -0.20163416256158975 -0.21968588398647404 0.25073738667705153 0.20837478284847491 -0.15325742332812531 -0.057821822795622639 0.25892041977763752 0.30421035983523514 -0.17162962170696658
leaf_weight=951.2831277102232 729.23423105478287 154.41631239652634 263.28134725987911 320.45117174088955 400.75007162988186 108.39351685345173 54.63026861846447 59.176856353878975 34.538271278142929 43.533673822879791 53.409963220357895 49.891517803072929 19.646518096327782 18.288099065423012 41.950628310441971 12.909247696399687 27.67016838490963 155.93702501058578
leaf_count=2836 3174 668 788 968 1671 362 165 181 140 174 217 155 66 71 161 45 85 619
internal_value=0 0.141882 0.171364 0.0594634 -0.0121354 0.12537 -0.176016 -0.206541 0.255977 0.313748 0.0367005 0.0399442 -0.255885 0.293244 0.17211 -0.268176 -0.0365069 -0.0721733
internal_weight=0 2528.43 2374.02 1329.31 974.32 573.57 970.958 916.327 354.989 1044.71 154.537 93.4252 761.79 281.569 101.127 742.143 292.001 264.331
internal_count=12546 8537 7869 4704 3596 1925 4009 3844 1108 3165 559 329 3285 859 342 3219 1066 981
is_linear=0
shrinkage=0.2


Tree=2
num_leaves=19
num_cat=0
split_feature=2 33 27 18 19 20 16 27 33 28 59 18 60 60 8 17 27 21
split_gain=1215.66 640.96 577.194 392.7 698.006 266.136 204.024 177 162.1 108.952 86.4386 86.2135 82.6986 77.6737 73.3851 71.9662 67.2838 64.7188
threshold=-0.032716843724968733 -0.23067845864414416 -0.091451133030500023 -0.047969019849579124 0.17291475526454039 0.33254817230690964 -0.1351217818783729 -0.054015669299332429 0.0097495635944283877 1.7966983871812605 0.1729843837623162 -0.055893648184681413 0.18715459962467323 0.18775104046657273 1.4968770182295981 -0.13946786053393076 -0.098257580981621392 -0.098804441304696067
decision_type=2 2 2 2 2 2 2 2 2 2 2 2 2 2 2 2 2 2
left_child=1 3 6 4 10 7 -3 11 17 16 -1 -2 -9 -7 -13 -10 -5 -4
right_child=5 2 8 9 -6 13 -8 12 15 -11 -12 14 -14 -15 -16 -17 -18 -19
leaf_value=0.29761002121629965 0.44439196137877135 0.20028205891622491 0.072031522004652057 0.061026389662607365 -0.17114012796221378 0.2480950458349542 -0.23746630682907877 0.17667291779746719 0.1841766401647433 -0.32396087607744589 -0.043698518795571073 -0.25649619736347018 -0.17281246246881443 -0.12224223394049794 0.04048804850913227 -0.064430590977095456 0.30719913354451167 0.27984163764589742
leaf_weight=306.41206556558609 7.4244282543659201 48.167493924498558 82.24123327434063 46.956004530191422 259.64690494537354 76.76504473388195 367.69416622817516 67.81834003329277 63.774609118700027 11.570060819387434 32.864025428891182 634.13512198626995 45.089800074696541 32.137644171714783 35.124816089868546 172.70812980830669 819.38678534328938 221.11886423826218
leaf_count=934 24 153 296 167 1134 249 1618 227 208 46 115 3044 188 132 145 671 2508 687
internal_value=0 0.117944 -0.00967617 0.200531 0.0756678 -0.154287 -0.186764 -0.194711 0.126741 0.285714 0.264549 -0.233391 0.0371061 0.138807 -0.24091 0.00261375 0.293857 0.223504
internal_weight=0 2432.54 955.704 1476.84 598.923 898.495 415.862 789.593 539.843 877.913 339.276 676.684 112.908 108.903 669.26 236.483 866.343 303.36
internal_count=12546 8537 3633 4904 2183 4009 1771 3628 1862 2721 1049 3213 415 381 3189 879 2675 983
is_linear=0
shrinkage=0.2


Tree=3
num_leaves=19
num_cat=0
split_feature=2 27 19 20 32 33 22 2 27 60 61 1 61 1 33 41 19 19
split_gain=865.92 450.186 329.275 692.707 255.816 211.231 207.012 149.517 98.1232 80.1622 249.36 79.45 77.4436 73.537 71.3144 62.4648 56.5419 52.8276
threshold=-0.032745871902855536 -0.084644685079378626 0.17291475526454039 0.11656684275574741 -0.15155705259850813 -0.19424182781089944 0.19865080612374539 -0.03182640984912017 -0.081241461103817955 0.16838425548254141 -0.23741892202603646 -0.021373198765627013 -0.23766308445398485 -0.025562939871315502 0.64215305102394249 -0.018745734842132173 0.48786156353335691 0.3689462545137111
decision_type=2 2 2 2 2 2 2 2 2 2 2 2 2 2 2 2 2 2
left_child=2 6 4 9 11 7 12 -3 13 10 -4 15 -2 -6 -10 -1 -14 -5
right_child=1 5 3 17 8 -7 -8 -9 14 -11 -12 -13 16 -15 -16 -17 -18 -19
leaf_value=0.25593555827326492 0.37522089361651323 0.27189945102768531 0.32991273200528126 0.089512703278544714 0.022143447116223965 -0.09639271406939455 0.186444092646675 -0.18202991690699957 0.24485964333067259 -0.20645474108008646 -0.18821352867416249 -0.266896391352828 -0.23770274776907591 -0.24936460397000954 -0.089556864874534042 -0.22547539470222988 0.21366773595496574 0.27938049946779958
leaf_weight=829.85494543612003 8.5577551573514921 186.24770660698414 52.67455105483532 75.637645080685616 142.24011515080929 168.17350551486015 53.304439336061478 34.383386015892029 106.523064494133 284.4955308586359 126.10604161024094 12.080314964056013 668.22022603452206 55.460993379354477 33.537851259112358 10.923016101121901 11.288592740893362 260.47236639261246
leaf_count=2730 29 605 184 265 519 706 186 151 340 1334 586 50 3543 244 132 53 37 852
internal_value=0 -0.101847 0.117362 0.0180753 0.184023 0.0724558 -0.193259 0.201159 0.0367103 -0.140504 -0.0355568 0.242364 -0.222674 -0.0540226 0.164783 0.249681 -0.230204 0.236653
internal_weight=0 1130.18 1990.01 799.386 1190.62 388.805 741.371 220.631 337.762 463.276 178.781 852.858 688.067 197.701 140.061 840.778 679.509 336.11
internal_count=12546 5257 7289 3221 4068 1462 3795 756 1235 2104 770 2833 3609 763 472 2783 3580 1117
is_linear=0
shrinkage=0.2


Tree=4
num_leaves=19
num_cat=0
split_feature=2 33 27 8 18 20 20 20 62 21 20 62 7 18 40 60 20 28
split_gain=619.8 372.731 345.119 232.394 227.864 175.143 139.87 109.877 107.649 93.022 179.541 91.7318 91.245 84.9415 76.5684 71.7452 64.7839 62.4577
threshold=-0.032716843724968733 -0.23067845864414416 -0.094854357006060708 0.21680079773068939 -0.047595670272677394 -0.11642957136966993 -0.50705288391790593 -0.35508448924341895 0.099628028100494023 -0.020509898075239761 -0.37872286238982361 0.086529865149084895 -0.030212287424479876 -0.056828600051843169 -0.017620413128779402 0.47139374554519836 -0.068667265658633889 0.68480715475820597
decision_type=2 2 2 2 2 2 2 2 2 2 2 2 2 2 2 2 2 2
left_child=1 3 13 14 6 7 -5 12 9 10 -4 -7 -2 -3 17 -11 -12 -1
right_child=5 2 8 4 -6 11 -8 -9 -10 15 16 -13 -14 -15 -16 -17 -18 -19
leaf_value=0.25101501213334448 0.25535568343652043 0.30688240024550439 0.22957204545409265 0.19892943324383094 0.1877439534884964 0.11316898566321475 -0.14028754511316693 -0.22123035001533298 -0.1678700630744111 0.22728972276267659 -0.1474849998220861 -0.18051253300002157 -0.17960146648697711 -0.22213170199917323 -0.2525569457332576 -0.20773382777407129 0.18170863139854132 -0.19925510057891549
leaf_weight=675.94952557981014 38.363843560218811 12.726662069559096 109.33490703999996 62.376950562000275 285.70380730926991 151.72297737002373 220.48794674873352 460.7617184817791 65.875448748469353 218.07851403951645 151.31201435625553 59.120019271969795 38.806524723768234 263.70640411973 12.711790710687636 16.297770634293556 28.400736540555954 12.551332443952559
leaf_count=2447 151 41 367 222 1031 614 1094 2758 284 748 677 280 206 1343 60 70 103 50
internal_value=0 0.0877886 -0.0134042 0.156781 0.0617622 -0.123681 -0.0654839 -0.184238 0.0730826 0.103408 0.0274856 0.0308212 0.0366296 -0.197776 0.233827 0.19704 -0.0954612 0.242807
internal_weight=0 2135.51 865.732 1269.78 568.569 748.775 282.865 537.932 589.299 523.424 289.048 210.843 77.1704 276.433 701.213 234.376 179.713 688.501
internal_count=12546 8537 3633 4904 2347 4009 1316 3115 2249 1965 1147 894 357 1384 2557 818 780 2497
is_linear=0
shrinkage=0.2


Tree=5
num_leaves=19
num_cat=0
split_feature=16 60 27 8 34 19 19 62 4 8 62 40 20 60 61 28 60 4
split_gain=472.792 408.07 208.853 189.719 168.165 145.37 161.081 175.362 108.971 104.787 86.0986 81.5575 53.5419 68.0294 53.4031 46.9795 44.0583 43.0253
threshold=-0.12512945903147957 0.17775188517590437 -0.077838237128257257 0.10477758419828295 -0.034161395304703336 0.3689462545137111 0.16292933468973037 -0.23151099552839746 -0.12888748375118816 0.53360645603572754 0.13106361918387596 -0.018568936119768103 -0.0066309271895167851 0.16838425548254141 0.24195912490371516 -0.10459355628111279 0.16841934023794727 -0.12888748375118816
decision_type=2 2 2 2 2 2 2 2 2 2 2 2 2 2 2 2 2 2
left_child=1 3 9 11 8 6 7 -2 15 -3 12 -1 13 -6 -4 -5 -15 -8
right_child=5 2 14 4 10 -7 17 -9 -10 -11 -12 -13 -14 16 -16 -17 -18 -19
leaf_value=0.21052786503893933 0.20859967413704947 -0.22523619298100175 0.14713957655467552 -0.18521618926006148 0.21719902043684694 0.21182360510448756 -0.23512600143058093 -0.13583631134020532 0.29685998897315158 0.055994401852863196 -0.19682038688482006 -0.21371766762500069 0.23426930283453143 -0.19219535925878245 -0.19327059575618255 0.1819104126312403 0.062932628302051208 -0.05897771475118152
leaf_weight=767.16964639723301 94.685938850045204 262.80856995284557 148.27102027833462 160.23579162359238 100.07028815150261 52.61978605389595 361.42697484791279 157.43668858706951 24.517672821879387 66.382241576910019 31.523475185036659 18.564086556434631 166.09384703636169 34.861844331026077 21.051324412226677 15.271122574806212 121.21897056698799 65.521228179335594
leaf_count=3050 371 1534 554 847 374 200 2435 790 91 264 147 104 616 172 100 60 497 340
internal_value=0 0.0802676 -0.0756831 0.134274 0.0546775 -0.108425 -0.13324 -0.00648162 -0.0980978 -0.168525 0.122022 0.200504 0.145826 0.0884771 0.104817 -0.153272 0.00594784 -0.208094
internal_weight=0 1938.04 498.513 1439.53 653.793 731.691 679.071 252.123 200.025 329.191 453.768 785.734 422.245 256.151 169.322 175.507 156.081 426.948
internal_count=12546 8410 2452 5958 2804 4136 3936 1161 998 1798 1806 3154 1659 1043 654 907 669 2775
is_linear=0
shrinkage=0.2


Tree=6
num_leaves=19
num_cat=0
split_feature=27 2 33 60 24 1 60 16 8 61 33 4 59 10 27 15 62 62
split_gain=365.683 455.609 260.967 167.787 163.873 125.448 121.817 101.223 92.4237 80.9377 57.2132 46.563 63.8636 50.1346 42.7897 37.7032 42.7577 35.2228
threshold=-0.091451133030500023 -0.032762587942245784 -0.18386925701127002 0.16838425548254141 0.39610925580770906 -0.021373198765627013 0.16841934023794727 -0.13243550974240118 1.3560070039244378 -0.23766308445398485 -0.25219329166063337 -0.12888748375118816 0.14661974119210455 -0.042318895724473067 -0.098257580981621392 -0.091306143910004411 -0.060518844252068361 -0.0070783394103190846
decision_type=2 2 2 2 2 2 2 2 2 2 2 2 2 2 2 2 2 2
left_child=1 3 5 11 8 10 -5 15 9 -3 -2 12 13 -1 -8 -4 -17 -10
right_child=2 4 7 6 -6 -7 14 -9 17 -11 -12 -13 -14 -15 -16 16 -18 -19
leaf_value=0.26698541004081544 -0.19475301020130251 0.31474404395606093 0.18555754883285325 -0.20809800268345074 0.21341124069903972 -0.18947024862441794 -0.1108712337310275 -0.093736466439069216 0.168754449748102 -0.20524444192682414 0.22350778185747308 0.245402595681604 0.1751691867355879 -0.189662380538931 0.13893887607142616 0.089806639988632531 -0.1641352180806947 -0.19965427199266864
leaf_weight=12.552085950970648 13.378460630774496 12.204954847693442 98.111239194869995 104.12572851777077 46.545079499483109 32.446962043642998 36.757133290171623 239.93977615982294 40.877371072769165 631.54044845700264 589.60812167823315 172.5332955121994 134.46047975122929 41.125626921653748 108.05309288203716 101.01653559505939 35.964447811245918 13.914039999246596
leaf_count=52 87 45 366 552 200 164 155 1149 165 4449 2542 756 556 248 439 387 159 75
internal_value=0 -0.0450372 0.109784 0.0831909 -0.14995 0.193614 -0.043107 -0.00235122 -0.174162 -0.195386 0.214228 0.170362 0.101545 -0.0828791 0.0755297 0.0909184 0.023134 0.0751987
internal_weight=0 1354.69 1110.47 609.607 745.082 635.434 248.936 475.032 698.537 643.745 602.987 360.671 188.138 53.6777 144.81 235.092 136.981 54.7914
internal_count=12546 7692 4854 2758 4934 2793 1146 2061 4734 4494 2629 1612 856 300 594 912 546 240
is_linear=0
shrinkage=0.2


Tree=7
num_leaves=19
num_cat=0
split_feature=27 2 62 18 18 8 60 19 61 61 16 18 60 61 21 20 20 23
split_gain=263.473 344.34 187.678 137.868 135.499 118.397 105.128 70.643 59.678 57.7519 52.6791 45.4869 43.9869 57.5812 39.0932 42.2605 34.4371 32.1252
threshold=-0.088047909054939325 -0.032760777032282258 0.086529865149084895 -0.056828600051843169 -0.048942633127375346 1.2164714831586998 0.17943595343538538 0.82468032413540404 -0.2353609815619003 -0.23766308445398485 -0.13247948131661877 -0.055893648184681413 0.16838425548254141 -0.23741892202603646 -0.16098108057782956 -0.38351697450977057 -0.15752025409898265 -0.052941744789194937
decision_type=2 2 2 2 2 2 2 2 2 2 2 2 2 2 2 2 2 2
left_child=1 3 6 -1 12 7 14 9 -6 -3 -8 -11 13 17 15 -2 -7 -5
right_child=2 5 -4 4 8 16 10 -9 -10 11 -12 -13 -14 -15 -16 -17 -18 -19
leaf_value=0.24064081173319837 0.23590850914431993 0.2895434986974823 -0.12102639305304247 0.29034688087839983 0.14296860463417391 -0.064554035981880017 0.1151100422726884 0.22586703039100967 -0.044715046717860668 0.14388390399865636 -0.089604749907485473 -0.19810314017930386 -0.1870166654283498 -0.12074139124750655 0.20945996233433439 -0.12022128256691422 0.18835007150062033 -0.1494600372984401
leaf_weight=141.75996877253056 23.162291005253792 10.304244667291639 122.80435368418694 28.976896166801453 271.0442656353116 37.374904297292233 111.72327979654074 17.72092293202877 90.359429560601711 16.016599997878075 91.426752828061581 542.17660719156265 116.88331223279238 65.8123659491539 489.83142574876547 31.393107011914253 50.821073904633522 8.6193359196186048
leaf_count=709 105 44 624 110 1229 211 457 86 398 73 436 4340 652 395 2276 148 217 36
internal_value=0 -0.0320584 0.108114 0.0637818 0.0206811 -0.134868 0.145756 -0.167372 0.0960433 -0.179629 0.0229791 -0.18829 -0.102956 -0.00794104 0.191574 0.0309788 0.0811766 0.189516
internal_weight=0 1397.87 870.341 723.456 581.696 674.414 747.537 586.218 361.404 568.497 203.15 558.193 220.292 103.409 544.387 54.5554 88.196 37.5962
internal_count=12546 8500 4046 3529 2820 4971 3422 4543 1627 4457 893 4413 1193 541 2529 253 428 146
is_linear=0
shrinkage=0.2


Tree=8
num_leaves=19
num_cat=0
split_feature=20 19 60 19 62 20 62 61 21 62 26 29 27 61 2 14 19 59
split_gain=213.74 321.74 305.147 166.177 97.7685 78.97 71.9392 68.9971 45.6949 48.1116 43.0765 40.3498 39.1115 38.1719 33.3188 30.822 27.4373 24.6225
threshold=0.77912018754227697 0.17291475526454039 0.1741732401245073 0.3689462545137111 -0.24240866710396988 -0.59910147437144023 -0.23151099552839746 -0.23766308445398485 -0.032470483054488158 0.14503499299871239 -0.079764578168189215 -0.061061432412755051 -0.026789877494846914 0.19312663931404353 -0.032469794142886206 -0.10085487866963912 -0.7383643894088957 0.50383104439075155
decision_type=2 2 2 2 2 2 2 2 2 2 2 2 2 2 2 2 2 2
left_child=1 2 4 7 -1 -6 10 -3 16 -10 -4 15 -8 17 -14 -9 -7 -2
right_child=13 3 6 -5 5 8 12 11 9 -11 -12 -13 14 -15 -16 -17 -18 -19
leaf_value=0.2176566522402108 0.23446523037816003 0.28009987825677451 -0.13770100095756024 0.13034342926229911 0.2195980397131615 -0.25401002715525156 -0.15588808014250033 0.057942566979504201 0.16880157928741318 -0.11602449154281176 0.13062350752680005 0.15123420328240023 0.14557489637526697 -0.20194875905074047 -0.17761513812225588 -0.17149804746008424 -0.028125661365175553 -0.13495599669781952
leaf_weight=362.56043061614037 205.75566431879997 15.017815873026846 32.536307595670223 102.96448177844286 97.808120593428612 28.205639459192753 246.6572522893548 24.403962835669518 88.876253269612789 32.358851566910744 90.496660850942135 16.882642634212971 35.651330307126045 8.8691987693309766 19.871372111141682 580.63176819682121 90.602116830646992 7.4791798442602149
leaf_count=1873 1033 59 176 524 572 143 1541 107 407 168 389 75 154 46 117 4716 410 36
internal_value=0 -0.00295092 0.0643889 -0.105396 0.145525 0.068118 -0.0692588 -0.143505 0.00639583 0.0927787 0.0596646 -0.153734 -0.12175 0.204598 0.0299064 -0.162244 -0.0817519 0.221508
internal_weight=0 1865.53 1125.62 739.901 700.411 337.851 425.213 636.936 240.043 121.235 123.033 621.918 302.18 222.104 55.5227 605.036 118.808 213.235
internal_count=12546 11431 5950 5481 3573 1700 2377 4957 1128 575 565 4898 1812 1115 271 4823 553 1069
is_linear=0
shrinkage=0.2


Tree=9
num_leaves=19
num_cat=0
split_feature=27 14 33 19 61 1 22 20 60 8 18 16 25 1 59 2 60 59
split_gain=171.851 213.491 150.892 130.784 84.7343 77.1717 60.6367 57.4341 54.5497 49.6429 44.9529 44.3847 37.2507 33.7455 30.8641 30.6322 30.8675 46.0784
threshold=-0.091451133030500023 -0.10081024446860522 -0.2239024332133179 1.1962943815653717 -0.23766308445398485 -0.021023799749782929 -0.14789370947162336 0.84058339863149778 0.16817374695010628 1.3560070039244378 -0.057786686176310102 -0.13243550974240118 -0.19917969383677506 -0.024866173229254333 0.14675905238137912 -0.032761863614305324 0.16838425548254141 0.14661974119210455
decision_type=2 2 2 2 2 2 2 2 2 2 2 2 2 2 2 2 2 2
left_child=1 13 5 4 -3 12 -4 11 -6 10 -10 -8 -2 14 -1 16 17 -12
right_child=2 3 6 -5 8 -7 7 -9 9 -11 15 -13 -14 -15 -16 -17 -18 -19
leaf_value=0.22000210488198613 -0.15356731348202146 0.20478776250733044 0.19830199924371206 0.23232792744574821 0.18760385448326999 -0.16400171118646145 0.031276386178744252 0.17271559831232608 0.23112727097256336 0.052927062504724898 -0.20902379345984393 -0.1031622800685139 0.21386718607341604 -0.31520797304201026 0.072560920228733047 -0.18843762293276922 -0.15780447672811268 0.10222977261726039
leaf_weight=106.92533025890589 11.407663166522978 32.853852450847626 60.967702656984329 47.736771583557129 21.812441878020763 24.676559969782829 181.95336881279945 57.442814208567142 12.194032937288283 52.659831643104553 28.596498869359493 213.48062209784985 339.29315323382616 6.6546362563967696 121.12047618627548 410.74714817106724 125.47758422791958 56.841949269175529
leaf_count=708 85 168 257 286 111 146 828 273 66 258 231 1185 2080 37 588 4220 739 280
internal_value=0 -0.0387218 0.0814688 -0.0885404 -0.109206 0.177861 0.0110519 -0.0141562 -0.12377 -0.133663 -0.149165 -0.0413022 0.201915 0.128738 0.141693 -0.156624 -0.0946696 -0.00194771
internal_weight=0 1023.62 889.222 788.92 741.183 375.377 513.845 452.877 708.329 686.517 633.857 395.434 350.701 234.7 228.046 621.663 210.916 85.4384
internal_count=12546 7692 4854 6359 6073 2311 2543 2286 5905 5794 5536 2013 2165 1333 1296 5470 1250 511
is_linear=0
shrinkage=0.2


Tree=10
num_leaves=19
num_cat=0
split_feature=20 19 60 62 62 20 60 20 18 27 16 19 7 19 27 61 22 18
split_gain=136.135 219.316 176.551 71.8797 67.6515 59.1551 53.8362 48.2227 42.8686 40.8568 43.3228 40.0914 39.7359 29.9808 26.3723 23.144 22.2335 20.4043
threshold=0.23053563904246713 0.17291475526454039 0.1741732401245073 -0.24240866710396988 0.11709224536903955 -0.69121443335585819 0.47139374554519836 -0.10982746162521602 -0.055893648184681413 -0.077838237128257257 -0.12829563310950778 0.17291867606054115 -0.168283497855962 0.1764845538935865 -0.098257580981621392 -0.23766308445398485 -0.14482317621166962 -0.049752214748211183
decision_type=2 2 2 2 2 2 2 2 2 2 2 2 2 2 2 2 2 2
left_child=1 2 3 -1 6 -5 -2 8 11 12 -11 -3 16 -9 -7 -10 -4 -16
right_child=4 7 9 5 -6 14 -8 13 15 10 -12 -13 -14 -15 17 -17 -18 -19
leaf_value=0.19350781587758578 0.17381269892282525 -0.075345005821789268 0.13884443639379107 0.22052925184932357 -0.14218975246359786 -0.20715358842467194 -0.21350933022766194 -0.15305897527890194 0.22872909971622779 0.092889153301946359 -0.14973586297609973 0.38987118981235469 -0.2047097511583934 0.056508461244860975 -0.13735803282512024 -0.17169013108965059 -0.085858196195255476 0.049260362127025753
leaf_weight=269.8209600970149 301.75663070380688 24.443607293069363 24.383519284427166 60.769534587860107 33.820967696607113 22.741854436695576 15.071526721119879 38.967694163322449 5.8650263249874106 96.161656938493252 42.42549117654562 10.632923193275927 107.76395900174975 91.241737462580204 27.585417002439499 371.5860247798264 63.441164091229439 155.7759572006762
leaf_count=1739 1869 175 102 514 199 123 76 252 25 434 270 44 952 461 126 4043 356 786
internal_value=0 -0.0125321 0.0496577 0.120716 0.126686 0.0471195 0.155388 -0.112321 -0.145814 -0.0644631 0.0186147 0.0656783 -0.123329 -0.00620865 -0.00401039 -0.165468 -0.0234721 0.0211849
internal_weight=0 1413.61 870.87 536.694 350.649 266.873 316.828 542.737 412.528 334.176 138.587 35.0765 195.589 130.209 206.103 377.451 87.8247 183.361
internal_count=12546 10402 5402 3288 2144 1549 1945 5000 4287 2114 704 219 1410 713 1035 4068 458 912
is_linear=0
shrinkage=0.2


Tree=11
num_leaves=19
num_cat=0
split_feature=20 21 62 20 20 61 18 27 62 46 60 35 2 61 24 9 18 44
split_gain=111.785 191.166 124.962 111.167 51.974 44.8333 37.0899 36.7597 41.9507 32.4954 31.7626 26.1411 25.7963 25.7776 24.8804 24.8254 22.6039 21.3832
threshold=-0.54742118525392636 -0.090413144933154291 -0.2404177463353557 -0.10982746162521602 0.89081664451598164 -0.227076899185081 -0.055893648184681413 -0.060822117250453812 0.059634970555524795 -0.024870650826564714 0.16838425548254141 -0.020707542743930513 -0.03275273350808821 -0.23766308445398485 0.053081967636574544 -1.5951064782141502 -0.0081262787793649101 -0.024174570265465819
decision_type=2 2 2 2 2 2 2 2 2 2 2 2 2 2 2 2 2 2
left_child=-1 3 5 6 7 -3 14 10 -9 13 -4 -7 15 -8 -2 -12 -10 -17
right_child=1 2 4 -5 -6 11 9 8 16 -11 12 -13 -14 -15 -16 17 -18 -19
leaf_value=0.1670272395263912 -0.047417933244377944 0.17307790875830398 0.07110318483714019 0.11496299468768519 0.15192931020343531 0.122984634388631 0.12683506341583356 0.165284533199998 0.16791809132512375 0.10777599667421789 0.26317977732821585 -0.16704352342650816 -0.17971664848616978 -0.15822564826327307 0.26406285309866179 -0.10631931038669235 -0.14706986321675589 0.15180370397963056
leaf_weight=169.41552789881825 36.425336487591267 318.08517353236675 47.233381345868111 92.429394297301769 66.954581737518311 23.441902082413435 13.054430492222307 63.440897934138775 11.743886269629 20.376947913318872 9.5961009413003904 26.464813645929098 108.67214915156364 453.31981468573213 14.278915904462336 96.720963623374701 40.676772609353065 14.802104011178015
leaf_count=1265 246 2262 245 554 401 139 67 341 54 110 37 169 894 4881 61 516 238 66
internal_value=0 -0.0046131 0.0585638 -0.087644 -0.0109488 0.145426 -0.122488 -0.038706 0.0558898 -0.139445 -0.0782693 -0.0308131 -0.108973 -0.150246 0.0402987 -0.0454989 -0.0765026 -0.0720595
internal_weight=0 1457.72 827.833 629.885 459.841 367.992 537.455 392.886 115.862 486.751 277.025 49.9067 229.791 466.374 50.7043 121.119 52.4207 111.523
internal_count=12546 11281 5362 5919 2792 2570 5365 2391 633 5058 1758 308 1513 4948 307 619 292 582
is_linear=0
shrinkage=0.2


Tree=12
num_leaves=19
num_cat=0
split_feature=27 14 61 19 60 4 60 59 27 61 44 9 21 21 4 2 60 1
split_gain=91.2783 112.539 100.52 74.4929 53.2518 111.961 58.1548 46.4577 39.2958 34.9396 32.3077 30.7914 32.606 26.1236 25.3979 25.2429 24.4957 23.1662
threshold=-0.091451133030500023 -0.10084311925542543 -0.23553538329614912 1.1962943815653717 0.16838425548254141 -0.12888748375118816 0.16820883170551212 0.23025869645282221 -0.094854357006060708 -0.23741892202603646 -0.024216640819701315 -0.0036327839609522588 -0.0477995968627314 -0.18608816828165189 0.072322293035025603 -0.032759954358165672 0.16817374695010628 -0.024866173229254333
decision_type=2 2 2 2 2 2 2 2 2 2 2 2 2 2 2 2 2 2
left_child=1 17 7 4 5 6 16 13 -6 -8 11 -4 -13 -2 -9 -10 -3 -1
right_child=2 3 10 -5 8 -7 9 14 15 -11 -12 12 -14 -15 -16 -17 -18 -19
leaf_value=0.13545771514549046 -0.0068970276787588772 0.10723396346638257 -0.098160418850918085 0.21143876488002733 -0.18272111176250042 0.23383429965314684 0.22336284190391376 0.089054067640763332 0.056258219779148723 -0.074054373806151028 0.096492927549006138 -0.094037412928173095 0.11915274520544071 0.19709287188185984 -0.15536984550837951 -0.12728169109325352 -0.19872589229168658 -0.29554337508830653
leaf_weight=144.65959818661213 27.90579716861248 11.551939666271208 165.24421079456806 35.08418881893158 244.04828016459942 55.496262818574905 29.820772413164377 45.065565824508667 55.297202866524458 33.603143475949764 87.950588025152683 47.438566233962774 72.631907697767019 250.80167083442211 27.309522777795792 65.451038602739573 111.44225256145 5.16651777178049
leaf_count=1086 224 72 982 311 2491 355 166 258 302 240 495 302 462 1962 169 816 1820 33
internal_value=0 -0.0354771 0.0627715 -0.071912 -0.0882973 -0.015536 -0.089773 0.139594 -0.136549 0.0657858 -0.00948532 -0.042154 0.0349236 0.176668 -0.00317519 -0.0432288 -0.169989 0.120595
internal_weight=0 791.621 724.348 641.795 606.711 241.914 186.418 351.083 364.797 63.4239 373.265 285.315 120.07 278.707 72.3751 120.748 122.994 149.826
internal_count=12546 7692 4854 6573 6262 2653 2298 2613 3609 406 2241 1746 764 2186 427 1118 1892 1119
is_linear=0
shrinkage=0.2


Tree=13
num_leaves=19
num_cat=0
split_feature=20 21 62 60 20 22 27 46 60 32 8 62 4 23 15 60 4 23
split_gain=79.7876 110.803 80.3178 64.2826 63.0872 37.394 35.8583 28.1454 25.4785 25.3997 25.2428 22.644 24.2943 20.9435 31.2734 17.3705 42.3674 24.7227
threshold=-0.61033978529121857 -0.075921803096414567 0.086529865149084895 0.22264282971769442 -0.045251799873775513 -0.14256382670215281 -0.094854357006060708 -0.024870650826564714 0.16838425548254141 -0.10016547760178794 1.1565598710325693 -0.23151099552839746 -0.12888748375118816 -0.032682412611483393 -0.091304882320519101 0.17087527311635703 -0.12888748375118816 -0.043478470302100884
decision_type=2 2 2 2 2 2 2 2 2 2 2 2 2 2 2 2 2 2
left_child=-1 4 3 6 5 11 8 15 -3 -8 -10 12 -2 14 -4 16 -7 -18
right_child=1 2 13 -5 -6 7 9 -9 10 -11 -12 -13 -14 -15 -16 -17 17 -19
leaf_value=0.17623598420733744 -0.015139444472551115 0.12089090805819261 0.24871172284889084 -0.086976914844851372 0.11008115845211919 -0.14171873201231008 0.17438129454131121 0.0876741171803921 -0.11488440217245462 0.055640237103307372 0.17011215177807781 -0.11753093735477099 0.2077863243709655 -0.16640125182835513 -0.11769792045660905 -0.18917432362133416 0.14399783827508159 -0.12200589058957584
leaf_weight=106.7305515371263 52.069676510989666 57.25050551071763 14.483217142522333 77.4595617800951 73.03054578229785 214.73512154445052 261.64885886386037 25.648874040693045 60.068985294550657 99.446416020393372 15.675367139279841 38.098376236855984 31.314199823886156 72.530081789940596 26.123913452029228 128.2744391746819 38.620342623442411 21.901636771857738
leaf_count=1012 402 409 75 463 510 3066 2236 136 449 578 92 271 187 547 184 1557 233 139
internal_value=0 -0.00360201 0.0519473 0.0824239 -0.0645838 -0.0877484 0.108981 -0.115477 0.0202011 0.14168 -0.0559041 0.0102123 0.0685787 -0.102015 0.0129883 -0.128389 -0.100062 0.0477367
internal_weight=0 1308.38 684.687 571.55 623.693 550.663 494.09 429.18 132.995 361.095 75.7444 121.482 83.3839 113.137 40.6071 403.532 275.257 60.522
internal_count=12546 11534 5033 4227 6501 5991 3764 5131 950 2814 541 860 589 806 259 4995 3438 372
is_linear=0
shrinkage=0.2


Tree=14
num_leaves=19
num_cat=0
split_feature=20 19 62 18 61 59 62 4 19 60 28 27 18 27 61 34 19 11
split_gain=66.0396 85.0719 90.2544 51.9325 39.5241 48.5025 44.3964 39.5856 38.5402 29.3479 29.079 24.4215 22.3274 21.4022 19.991 19.8742 18.5694 18.5085
threshold=0.77912018754227697 0.17291475526454039 -0.23151099552839746 -0.056828600051843169 -0.23713987925123833 0.14693319136797237 -0.25372547989398736 -0.12888748375118816 -0.75790588563144123 0.20283748529108991 -0.10459355628111279 -0.077838237128257257 -0.0024857681513252889 -0.098257580981621392 0.19312663931404353 -0.034161185701554984 0.29342025519327825 -0.0084019465343494418
decision_type=2 2 2 2 2 2 2 2 2 2 2 2 2 2 2 2 2 2
left_child=1 2 9 -4 5 7 -7 10 11 13 -3 -5 -13 -1 -2 -8 -6 -10
right_child=14 4 3 8 16 6 15 -9 17 -11 -12 12 -14 -15 -16 -17 -18 -19
leaf_value=-0.06521453040114758 0.16889116325662223 -0.16113291135928545 0.21342921744010068 -0.20080487721959883 -0.19353531441787841 0.15162466939749777 -0.42731968581208185 0.18440865771368312 -0.0043299708193079312 -0.044495821201625305 0.22632166902870138 0.067220593835554676 -0.14159119759774486 0.15639508784489201 -0.16991722178351093 -0.035240822129300235 0.048245796210320976 0.27578577851107516
leaf_weight=18.716221552342176 115.24061555415392 146.98980213701725 34.289874587208033 76.674812030047178 115.9361066557467 77.580686215311289 5.5935845747590056 16.580852493643761 234.22175772301853 38.906045105308294 8.1793051064014417 38.484038673341274 43.788978092372417 253.9954986423254 7.414224572479724 68.507463131099939 14.270077083259819 9.831346929073332
leaf_count=118 1069 2633 505 780 1463 543 45 91 1526 229 52 210 286 2224 46 569 85 72
internal_value=0 -0.00564556 0.0357556 -0.0228549 -0.0739945 -0.0365377 0.0458766 -0.109322 -0.0429595 0.118003 -0.140709 -0.119598 -0.0439174 0.141186 0.148411 -0.0648372 -0.167037 0.00695411
internal_weight=0 1202.55 748.909 437.291 453.638 323.432 151.682 171.75 403.001 311.618 155.169 158.948 82.273 272.712 122.655 74.101 130.206 244.053
internal_count=12546 11431 5950 3379 5481 3933 1157 2776 2874 2571 2685 1276 496 2342 1115 614 1548 1598
is_linear=0
shrinkage=0.2


Tree=15
num_leaves=19
num_cat=0
split_feature=19 19 62 18 19 34 19 4 23 27 60 19 44 0 21 32 20 23
split_gain=54.9109 70.3398 63.2367 38.4883 42.3349 36.6328 50.6586 33.761 30.6243 28.9445 27.5023 33.0875 27.4889 25.6391 22.1884 25.915 23.1939 21.7308
threshold=1.1555512472507796 0.17291475526454039 -0.24670486455203208 -0.056828600051843169 -0.75821217865117829 -0.034160987024042765 0.31504007517862642 -0.12888748375118816 0.037228698945056378 -0.081241461103817955 0.17312069746233169 0.29325294568079235 -0.024194155624020545 -0.019911547392991263 -0.022426395318855121 -0.1461492900891804 -0.38791319575212524 -0.0011859615241848699
decision_type=2 2 2 2 2 2 2 2 2 2 2 2 2 2 2 2 2 2
left_child=1 2 13 -4 9 7 10 8 -3 -5 11 -7 14 -1 16 -16 -6 -11
right_child=-2 5 3 4 12 6 -8 -9 -10 17 -12 -13 -14 -15 15 -17 -18 -19
leaf_value=0.17651445049360295 0.20721070818431794 -0.18095418726532558 0.2122452241781875 -0.19304777793242606 0.052821605786203707 0.03336621814875796 0.15697847583587937 0.18917167487744693 0.2542164696127126 0.038522860601727327 -0.17275165961550493 -0.20718092324932214 0.13556440574234682 0.043839422762802088 0.17069215144803485 -0.02114530494543938 -0.12377482453149397 -0.16373982610536869
leaf_weight=137.73468708619475 52.689834482967854 151.79412835277617 30.971165101975203 73.226630555465817 45.611739095300436 114.56493869610131 52.350935254245996 11.733543261885641 6.7564615309238425 65.995176684111357 63.559891298413277 28.578770734369755 70.555969765409827 100.97397799044847 47.784561395645142 68.611007943749428 85.538862466812134 31.335957773029804
leaf_count=1353 714 2381 522 801 244 799 432 59 42 402 1015 824 438 872 340 448 643 217
internal_value=0 -0.0014409 0.0351817 -0.00396266 -0.0176659 -0.0661273 -0.0187624 -0.138184 -0.16241 -0.0980598 -0.0632715 -0.0146592 0.0254392 0.120393 -0.00594888 0.0576109 -0.0623579 -0.026596
internal_weight=0 1187.68 758.34 519.631 488.66 429.339 259.055 170.284 158.551 170.558 206.704 143.144 318.102 238.709 247.546 116.396 131.151 97.3311
internal_count=12546 11832 6280 4055 3533 5552 3070 2482 2423 1420 2638 1623 2113 2225 1675 788 887 619
is_linear=0
shrinkage=0.2


Tree=16
num_leaves=19
num_cat=0
split_feature=26 60 8 44 2 27 7 4 15 61 60 60 61 31 20 33 19 52
split_gain=48.1554 62.0705 53.3777 45.8653 35.0626 31.4113 30.4301 22.8295 20.9568 20.3863 20.6239 53.7204 28.3099 26.2693 17.9601 17.1452 16.747 16.1367
threshold=-0.079764578168189215 0.16838425548254141 -0.18935323118330979 -0.024012741162639729 -0.032745871902855536 -0.094854357006060708 -0.20364319808841475 0.022019848838472151 -0.091310502292095794 -0.23766308445398485 0.16838425548254141 0.16841934023794727 -0.23741892202603646 -0.25878931198940325 -0.61033978529121857 0.16297519096921145 -0.69940390847219902 -0.024302386579925204
decision_type=2 2 2 2 2 2 2 2 2 2 2 2 2 2 2 2 2 2
left_child=1 6 5 4 9 -2 -1 -7 -9 -4 12 -12 13 -11 -3 -13 -5 -6
right_child=2 14 3 16 17 7 -8 8 -10 10 11 15 -14 -15 -16 -17 -18 -19
leaf_value=0.23336440666418656 -0.10728897740133775 0.14454730252275741 0.20527822973384616 -0.0108594391251898 -0.060450054090711573 0.17242483171695133 -0.010665619513730008 0.21126939476522982 -0.13966407286320578 0.30614782836625293 -0.19829405978694525 0.072824410669001846 -0.018722502275851757 0.025453221499971562 -0.15368758478438707 -0.053762664379480789 0.16863482547307329 -0.20152572744880426
leaf_weight=28.405572574585676 22.501849934458733 8.4911895468831045 21.079543050378561 28.219260534271598 149.54105296172202 160.86588202603161 72.887584341689944 10.436873801052572 19.569280633702874 29.269113373011351 58.062363540753722 108.82370040006936 63.841885089874268 24.499816782772541 165.59738786704838 70.539747573435307 78.996439062058926 41.41316288150847
leaf_count=523 214 70 220 187 2654 1843 658 73 148 249 608 762 645 177 2222 411 536 346
internal_value=0 -0.0667126 0.0290199 0.00143097 -0.02125 0.116204 0.0577676 0.142552 -0.0176008 0.0141854 0.00283968 -0.0310868 0.0713284 0.178249 -0.139141 0.0230405 0.121392 -0.0910458
internal_weight=0 275.382 887.66 674.286 567.07 213.374 101.293 190.872 30.0062 376.116 355.037 237.426 117.611 53.7689 174.089 179.363 107.216 190.954
internal_count=12546 3473 9073 6795 6072 2278 1181 2064 221 3072 2852 1781 1071 426 2292 1173 723 3000
is_linear=0
shrinkage=0.2


Tree=17
num_leaves=19
num_cat=0
split_feature=19 19 60 23 34 27 7 9 2 33 16 61 1 4 32 18 20 19
split_gain=40.6851 46.1654 47.6184 26.3905 26.7917 25.6595 32.0674 28.8874 26.4931 25.1246 24.0534 23.8773 23.7747 22.5659 21.3489 17.6138 28.2706 21.5544
threshold=1.1555512472507796 0.17291475526454039 0.17041917129608095 0.013561623336001584 -0.034160987024042765 -0.060822117250453812 -0.17501867885261965 -1.1811540202395696 -0.032604470857917088 -0.23237988607598817 -0.1341418084858266 -0.23759332376028527 -0.024485287674191746 -0.12888748375118816 -0.20724561543415332 -0.049161282970481258 -0.61033978529121857 -0.660933502532148
decision_type=2 2 2 2 2 2 2 2 2 2 2 2 2 2 2 2 2 2
left_child=1 2 12 4 13 6 -4 10 -7 11 -8 -6 14 -3 15 16 -1 -18
right_child=-2 3 5 -5 9 8 7 -9 -10 -11 -12 -13 -14 -15 -16 -17 17 -19
leaf_value=0.19998967506651488 0.20191715644672548 -0.1628646540866473 0.015364128472623865 0.14624739617035951 -0.10149052690266397 0.11937218942910875 0.1992931709986589 -0.19234946285235946 -0.080180285818593711 -0.11471299228549253 -0.11454973640827787 0.081701330474826847 -0.13377397474358171 0.15061212230446114 0.029987400175877574 0.19385295410041237 -0.32908665498733963 0.029554390195046645
leaf_weight=34.702538438141346 40.696672704070807 128.27561897784472 129.15744973532856 23.728026751428843 40.990552052855492 84.399314146488905 16.425040688365698 85.518133837729692 38.867466535419226 82.235167283564806 24.10171889513731 93.097857944667339 18.289411604404449 9.893956642597912 106.30413706786931 109.04990467987955 8.5095551162958127 31.576200595125556
leaf_count=746 714 2377 823 204 963 648 79 1144 287 1254 173 703 125 51 665 1319 56 215
internal_value=0 -0.001839 0.0290579 -0.0579519 -0.07162 -0.0184794 -0.054672 -0.126438 0.0564509 -0.0276779 0.0126473 0.0257 0.0873897 -0.140417 0.101331 0.142585 0.0678313 -0.0465793
internal_weight=0 1065.12 686.901 378.221 354.493 378.469 255.202 126.045 123.267 216.324 40.5268 134.088 308.432 138.17 290.142 183.838 74.7883 40.0858
internal_count=12546 11832 6280 5552 5348 3154 2219 1396 935 2920 252 1666 3126 2428 3001 2336 1017 271
is_linear=0
shrinkage=0.2


Tree=18
num_leaves=19
num_cat=0
split_feature=27 60 33 62 7 4 9 19 16 4 34 4 60 60 62 27 23 21
split_gain=35.1539 47.374 42.0846 41.2135 39.8599 35.9317 28.7254 27.6399 25.9557 23.7597 29.2493 23.343 22.6108 27.7715 20.1616 19.8779 15.6005 27.4972
threshold=-0.091451133030500023 0.16838425548254141 -0.22508407382439441 -0.25816139108019792 2.5072671530662958 -0.12888748375118816 -0.57983021787889333 -0.660933502532148 -0.1350845482297737 1.0000000180025095e-35 -0.034157506462708591 -0.12888748375118816 0.16820883170551212 0.16817374695010628 -0.25837096168742046 -0.098257580981621392 -0.051512786837679743 -0.01303579471972028
decision_type=2 2 2 2 2 2 2 2 2 2 2 2 2 2 2 2 2 2
left_child=1 3 4 -1 -2 12 7 -3 -4 10 11 -10 13 -5 -8 -14 -12 -18
right_child=2 6 8 5 -6 -7 14 -9 9 -11 16 -13 15 -15 -16 -17 17 -19
leaf_value=0.27793225936468452 0.15616292220540684 -0.19837458431055299 0.19049843812107098 0.13621768748887189 -0.17930990162499652 0.14727676263458619 0.22267099472141033 0.062638058380161482 -0.17826256901527127 -0.085580145447678613 0.19377866144061984 0.13673727157472368 -0.16368307569854967 -0.17449432922151986 -0.13672967453445414 0.11023948824079621 -0.070503400523329277 0.11321254877336911
leaf_weight=25.57592611387372 150.49215583689511 20.643807018175721 27.297117486596107 14.064058400690554 15.639386128634213 52.96936203353107 6.4456134866923085 75.871921561658382 39.94405603967607 115.78932639583945 31.671368235722184 12.310209549963472 13.826867293566464 63.274669134989381 199.09750310145319 45.361673830077052 55.291733058169484 79.361931914463639
leaf_count=311 2166 139 179 137 123 773 57 611 340 835 205 64 130 1878 3228 428 392 550
internal_value=0 -0.0321163 0.041255 0.0396222 0.124582 0.00745809 -0.0831958 0.00680991 0.00297864 -0.0123301 0.0264731 -0.104054 -0.0467883 -0.117991 -0.125459 0.0462492 0.0674808 0.0377748
internal_weight=0 517.131 527.797 215.073 166.132 189.497 302.059 96.5157 361.666 334.369 218.579 52.2543 136.527 77.3387 205.543 59.1885 166.325 134.654
internal_count=12546 7692 4854 3657 2289 3346 4035 750 2565 2386 1551 404 2573 2015 3285 558 1147 942
is_linear=0
shrinkage=0.2


Tree=19
num_leaves=19
num_cat=0
split_feature=11 16 20 18 27 1 27 45 62 61 20 22 21 35 43 25 2 26
split_gain=30.6712 35.323 25.7063 24.5548 41.8913 20.7774 30.5331 19.9042 22.4771 18.6232 18.1523 19.6009 17.3544 16.085 15.4015 15.9771 18.7286 16.4547
threshold=-0.0040078288557149769 -0.13243550974240118 0.41875187338694692 -0.056828600051843169 -0.098257580981621392 -0.025101814425986389 -0.057418893274893114 -0.023515613715834178 -0.23353684473154876 0.24195912490371516 1.0114969208768598 -0.14051615584969171 -0.1677955369613493 -0.020586925711627586 1.0000000180025095e-35 -0.089364044857913119 -0.032720343233764743 -0.076047183367656895
decision_type=2 2 2 2 2 2 2 2 2 2 2 2 2 2 2 2 2 2
left_child=1 2 3 -1 -5 6 10 8 12 -4 11 -3 -6 -2 15 16 17 -13
right_child=13 5 9 4 7 -7 -8 -9 -10 -11 -12 14 -14 -15 -16 -17 -18 -19
leaf_value=0.19640395345253286 0.11282018864152935 0.052837829925428216 0.16511512176272614 -0.15533426934800224 -0.038956504946012098 -0.17869010124395751 0.11487743388903252 0.13423225999258168 -0.053554605086013965 -0.20836616462101298 0.13906898659592723 -0.10312562649091611 0.096611142037999975 0.59202822491408957 0.18577784183769797 -0.18155401964994025 -0.15934036195834231 0.061619927821284386
leaf_weight=26.699048239737749 65.782915391027927 43.096538763493299 69.375976553186774 60.685261711478233 55.601716004312038 45.301747833378613 47.146213553845882 55.590563090518117 145.07616485469043 5.7858266104012719 17.487730350345373 44.938247952610254 117.78008750453591 2.9264058507978907 7.6128244251012793 71.507517378777266 55.969216303899884 52.677533105015755
leaf_count=708 1195 395 933 870 607 510 359 447 1162 41 186 591 1317 22 47 796 1915 445
internal_value=0 -0.00528262 0.0279021 0.0102348 -0.00119873 -0.0514455 -0.034513 0.0238081 0.00453223 0.136365 -0.0585275 -0.0710565 0.053136 0.13323 -0.0940014 -0.103464 -0.0671059 -0.0142221
internal_weight=0 922.332 536.595 461.433 434.734 385.738 340.436 374.049 318.458 75.1618 293.29 275.802 173.382 68.7093 232.705 225.093 153.585 97.6158
internal_count=12546 11329 6085 5111 4403 5244 4734 3533 3086 974 4375 4189 1924 1217 3794 3747 2951 1036
is_linear=0
shrinkage=0.2


Tree=20
num_leaves=19
num_cat=0
split_feature=19 22 21 62 60 47 20 2 27 18 4 23 14 17 24 15 27 19
split_gain=26.9566 27.5945 32.625 26.115 22.862 26.2729 21.0399 18.3216 19.3642 15.7297 17.1679 20.3845 16.9339 16.6685 15.2274 14.6753 17.9519 14.6184
threshold=1.1555512472507796 -0.14665860342845302 -0.045044422417569473 0.086529865149084895 0.50525053451184743 -0.10385873264471197 -0.17839042280191916 -0.032445490750291933 -0.077838237128257257 -0.043171216123157642 -0.12888748375118816 -0.043691815693772736 -0.10085487866963912 -0.058801285781525846 -0.37439055726000248 -0.091308775117398683 -0.098257580981621392 0.16292933468973037
decision_type=2 2 2 2 2 2 2 2 2 2 2 2 2 2 2 2 2 2
left_child=1 15 6 4 5 7 9 8 17 10 12 13 14 -12 -3 -1 -17 -4
right_child=-2 2 3 -5 -6 -7 -8 -9 -10 -11 11 -13 -14 -15 -16 16 -18 -19
leaf_value=0.1995096414281167 0.1950504570016911 -0.33293422258447258 0.059200897327170224 -0.07578273519753867 -0.18567306199199807 0.20107406736284028 0.017561032588673278 -0.20581646184439203 0.14277038911314699 -0.14956235770084197 0.064975258075801762 -0.11990367213521749 -0.12033714111624648 0.47485274619467549 0.14569118813965767 -0.23363674733776976 0.072028808011449549 -0.073116613720401694
leaf_weight=32.939917128533125 28.525039570406079 3.1251310296356705 94.313931858167052 76.617349510081112 14.895550344139336 49.214954659342766 120.82582285255194 11.533910799771546 66.166061071678996 93.161505918949842 45.066705711185932 25.220512539148331 122.34334433451295 4.3519541304558507 17.820432862266898 8.4611869463697058 83.842891303822398 51.709772821515799
leaf_count=682 714 17 901 695 113 455 1239 116 878 1441 340 342 2963 27 164 100 891 468
internal_value=0 -0.00235919 -0.0160835 0.027985 0.0556065 0.0687743 -0.0532686 0.0396709 0.0530147 -0.0807785 -0.0513743 0.0264034 -0.0918887 0.10107 0.0742791 0.084907 0.0440095 0.0123447
internal_weight=0 921.611 796.367 364.452 287.834 272.939 431.915 223.724 212.19 311.09 217.928 74.6392 143.289 49.4187 20.9456 125.244 92.3041 146.024
internal_count=12546 11832 10159 3626 2931 2818 6533 2363 2247 5294 3853 709 3144 367 181 1673 991 1369
is_linear=0
shrinkage=0.2


Tree=21
num_leaves=19
num_cat=0
split_feature=26 59 19 15 27 59 62 18 24 31 35 34 4 13 12 15 1 44
split_gain=25.436 32.1016 27.4221 29.2123 25.5746 25.4819 31.7585 22.0334 20.9943 18.1883 17.3868 15.9191 17.7357 16.9865 19.3811 15.0906 14.5401 13.6236
threshold=-0.079764578168189215 0.14679388017869779 -0.77779043003903248 -0.091308775117398683 -0.098257580981621392 0.14661974119210455 -0.23151099552839746 -0.054145048930137871 0.080328635291319658 -0.26516190092916953 -0.020707542740892582 -0.034161416466606358 -0.028282595358081298 1.0000000180025095e-35 -0.12133489536334155 -0.090737263622520978 -0.020833864819658383 -0.023985220301999788
decision_type=2 2 2 2 2 2 2 2 2 2 2 2 2 2 2 2 2 2
left_child=1 9 -2 16 -5 -6 7 8 10 -1 -7 -8 -13 14 -14 -15 -4 -16
right_child=2 -3 3 4 5 6 11 -9 -10 -11 -12 12 13 15 17 -17 -18 -19
leaf_value=0.22279379972499994 -0.18634225993208448 -0.12137768907485345 0.13970295280289877 -0.13579630236387494 -0.1411041416322702 0.15492936494748957 -0.30194115255489573 0.11673553330787055 -0.17907130275826261 -0.0094815335355995598 -0.077974752582596146 0.039321959840213645 0.14078924962367501 0.04688282355366568 -0.1892962327959001 0.67813288372049563 -0.18546618894414682 0.010039196907932814
leaf_weight=17.219643348827958 24.589733325876296 126.38979180064052 104.90535040013492 44.164367477409542 35.443462355993688 30.251511775888503 7.789567155763506 192.69596065487713 21.331430723890662 62.173808940686285 22.25171091966331 122.13679089583457 11.303127009421585 6.53409378323704 55.884184682741761 1.9720153752714376 5.8049579123035064 18.174897892400622
leaf_count=548 270 2180 1066 526 1075 330 57 2521 1179 745 280 927 56 71 511 17 60 127
internal_value=0 -0.0587705 0.0211478 0.0286438 0.0103824 0.0226613 0.0344992 0.0811404 -0.011757 0.0408967 0.0562209 -0.0210485 -0.010919 -0.0762901 -0.103147 0.193229 0.122653 -0.140377
internal_weight=0 205.783 705.233 680.643 569.933 525.769 490.325 266.531 73.8347 79.3935 52.5032 223.795 216.005 93.8683 85.3622 8.50611 110.71 74.0591
internal_count=12546 3473 9073 8803 7677 7151 6076 4310 1789 1293 610 1766 1709 782 694 88 1126 638
is_linear=0
shrinkage=0.2


Tree=22
num_leaves=19
num_cat=0
split_feature=61 25 61 61 59 20 20 15 19 21 21 23 59 59 4 44 59 61
split_gain=20.5597 26.1975 25.8054 33.0077 29.5151 21.4562 27.0623 16.6076 14.6886 13.893 13.7973 13.3191 12.9215 13.5499 12.3151 12.1493 11.338 11.3524
threshold=-0.23766308445398485 0.00782793108617196 -0.23759332376028527 -0.23741892202603646 0.15351564506119561 0.31019168693196292 -0.37563441132130065 -0.091303787737250383 -0.80721906572966173 -0.23524170232716415 -0.053148455283046632 -0.050936674599347191 0.14682870797601641 0.14689836357065369 0.44959062450917653 -0.024012741162639729 0.49251201026219299 0.089008803967493597
decision_type=2 2 2 2 2 2 2 2 2 2 2 2 2 2 2 2 2 2
left_child=1 8 12 4 -4 6 7 -5 -1 -8 14 -12 -2 -14 -11 -15 17 -7
right_child=2 -3 3 5 -6 16 9 -9 -10 10 11 -13 13 15 -16 -17 -18 -19
leaf_value=-0.48434339713222196 -0.23177396673458348 -0.31503044931046231 0.15879146715114037 0.13025445710612363 0.010009640800076477 0.1298810210242882 0.23025804421064031 -0.024833983632599799 0.22452760554238524 -0.11973813682988599 0.16084252849278088 -0.046228696196119592 0.28533656680404634 -0.12372599714306826 0.17802396103767515 0.18482187582156806 -0.18768737048674808 -0.035195942219969967
leaf_weight=1.2106477916240681 25.095635012723505 4.441268101334571 92.062440313398838 52.097194796428084 126.78242450021207 64.092098533175886 6.2187719549983731 58.781530815176666 34.188150968402624 169.29133901372552 13.621229704469441 141.4741449598223 4.238726343959569 43.314842898398638 5.7444765279069534 5.78658802807331 6.4608207158744326 22.518703168258071
leaf_count=5 590 33 1374 861 1232 892 69 565 606 3253 119 1348 45 1204 52 71 50 177
internal_value=0 0.142838 -0.00421335 0.00707073 0.0725984 -0.0194708 -0.0376524 0.0480355 0.200284 -0.0658997 -0.0714785 -0.0280427 -0.113427 -0.0577467 -0.109966 -0.0873637 0.0678957 0.0869612
internal_weight=0 39.8401 837.581 759.145 218.845 540.3 447.229 110.879 35.3988 336.35 330.131 155.095 78.4358 53.3402 175.036 49.1014 93.0716 86.6108
internal_count=12546 644 11902 9992 2606 7386 6267 1426 611 4841 4772 1467 1910 1320 3305 1275 1119 1069
is_linear=0
shrinkage=0.2


Tree=23
num_leaves=19
num_cat=0
split_feature=11 16 26 19 27 27 61 25 4 24 19 12 8 44 8 7 61 21
split_gain=18.8165 20.8258 24.152 18.7086 17.1273 15.5372 14.0547 16.4167 12.7966 19.9974 21.6841 17.7943 14.5464 13.9335 13.839 18.4421 13.1924 14.7343
threshold=-0.01624438502966841 -0.1350845482297737 -0.079764578168189215 -0.77779043003903248 0.02425848213856344 -0.091451133030500023 -0.23766308445398485 0.00782793108617196 -0.053433817456358008 0.03215359084142571 0.17291867606054115 -0.022649030063335431 0.15816419484247926 -0.023526583249914915 0.79112595516483786 -0.14134277386933133 -0.039699675908140962 -0.015161371917930563
decision_type=2 2 2 2 2 2 2 2 2 2 2 2 2 2 2 2 2 2
left_child=1 -1 -3 -4 6 -2 7 -5 9 14 -11 12 -12 -10 15 16 17 -8
right_child=5 2 3 4 -6 -7 8 -9 13 10 11 -13 -14 -15 -16 -17 -18 -19
leaf_value=0.068400769284893054 0.013851753979835369 -0.097827607228081426 -0.19245054222943206 0.23607350459793552 0.14609723259255883 0.19139052304833187 0.021519255273066321 -0.24833279614597395 -0.095454400900559344 -0.16344001373409298 0.22398340258839139 -0.17711579438618597 0.0051374190296384729 0.060675631581845427 0.14393939377799964 -0.21998600922561368 -0.091720596689885678 0.19673132894747145
leaf_weight=121.89266803488135 43.223547077737749 132.56237275432795 19.835963547229767 17.218699100427333 32.444684153422713 36.256270901300013 56.898830136284232 3.3416173346340647 108.22143731825054 43.283050476573408 15.593828844837843 16.517281724140048 54.994681729003787 28.987847684882581 50.66655529756099 11.63611231651157 22.395772671326995 28.974685443565249
leaf_count=1573 994 2457 241 319 426 811 542 21 993 559 220 1274 854 213 312 205 151 381
internal_value=0 -0.00740088 -0.0217577 -0.00202425 0.00566606 0.0948395 -0.00426623 0.157344 -0.0118495 0.0112282 -0.0477369 0.00975616 0.0534831 -0.0624692 0.0563025 0.0192711 0.044985 0.0806378
internal_weight=0 765.466 643.573 511.011 491.175 79.4798 458.73 20.5603 438.17 300.961 130.389 87.1058 70.5885 137.209 170.572 119.905 108.269 85.8735
internal_count=12546 10741 9168 6711 6470 1805 6044 340 5704 4498 2907 2348 1074 1206 1591 1279 1074 923
is_linear=0
shrinkage=0.2


Tree=24
num_leaves=19
num_cat=0
split_feature=27 60 31 60 25 16 61 14 60 62 9 61 7 39 15 16 34 21
split_gain=17.8729 36.2513 23.7843 22.4486 22.0279 19.8798 18.836 16.9462 18.0773 16.8534 16.5654 16.3385 14.2928 13.7518 12.8365 11.6811 11.0745 13.2154
threshold=-0.094854357006060708 0.16838425548254141 -0.26500202816201229 0.1741732401245073 -0.19789595701175897 0.098840943732982703 -0.23741892202603646 -0.10022193682439702 0.16841934023794727 0.43144815620285887 0.63323994736130296 -0.23738404167918672 -0.19859181234092149 0.35883454107194962 -0.091291073560879468 -0.11868823553086669 -0.034160631621427247 -0.1677955369613493
decision_type=2 2 2 2 2 2 2 2 2 2 2 2 2 2 2 2 2 2
left_child=1 2 6 4 -2 16 -1 8 -3 10 -6 -8 -10 -12 15 -5 17 -4
right_child=3 7 5 14 9 -7 11 -9 12 -11 13 -13 -14 -15 -16 -17 -18 -19
leaf_value=0.2794729937687021 -0.15218909408458073 -0.1594094062572938 0.089817183972327352 0.046329778625751737 0.049178168346153558 0.4278751160494223 -0.085497909294861077 -0.16597116537623413 0.14203598959269673 -0.2420876749624723 0.16780213578846373 0.22398884987396805 -0.064766573942800124 -0.43890337230638049 -0.072617685168604368 -0.14201713627280746 0.031107185034928889 -0.20040608038736962
leaf_weight=23.470276257954538 18.412929594516754 30.813588878139853 8.1632826523855311 103.12424607016146 192.74762093927711 3.5654012439772478 17.167214760556821 79.522252534516156 25.309007149189711 6.6051555275917044 80.420361086726189 11.323950648307799 28.333194539882243 1.5226810555905093 110.15449757222086 15.09977436903864 30.58209577575326 27.144097107462585
leaf_count=375 897 335 140 976 2188 30 362 1834 208 69 1668 492 447 14 1089 212 530 680
internal_value=0 -0.0383764 0.0444604 0.0237427 0.0597383 -0.0321039 0.146801 -0.0997123 -0.037324 0.0736106 0.0812018 0.0375091 0.0328053 0.156528 -0.0234955 0.0222738 -0.0569942 -0.133305
internal_weight=0 285.394 121.416 528.087 299.709 69.4549 51.9614 163.978 84.4558 281.296 274.691 28.4912 53.6422 81.943 228.379 118.224 65.8895 35.3074
internal_count=12546 5433 2609 7113 4836 1380 1229 2824 990 3939 3870 854 655 1682 2277 1188 1350 820
is_linear=0
shrinkage=0.2


Tree=25
num_leaves=19
num_cat=0
split_feature=19 27 9 7 24 1 18 18 18 23 23 7 21 60 20 25 23 32
split_gain=15.6472 15.6219 23.0191 44.5747 18.934 17.6186 14.1707 28.6903 17.5827 17.4286 16.1287 14.0042 13.0914 13.2065 13.1274 12.7793 16.7846 12.3815
threshold=1.1555512472507796 -0.060822117250453812 -1.5951064782141502 -0.17501867885261965 0.03215359084142571 -0.024963679931350357 -0.050791249729424275 -0.056352441219609341 -0.055708864742954438 -0.053026363826476249 -0.051896324481716376 0.2998115814117458 -0.032470483054488158 0.21457333597434805 -0.4208617886937675 -0.12079211408010515 0.018842684723717543 0.14753880199513622
decision_type=2 2 2 2 2 2 2 2 2 2 2 2 2 2 2 2 2 2
left_child=1 2 11 4 6 -3 7 -4 -9 -10 -8 17 14 -14 -12 -6 -17 -1
right_child=-2 5 3 -5 15 -7 10 8 9 -11 12 -13 13 -15 -16 16 -18 -19
leaf_value=0.19080643999964919 0.18504725534616973 0.10181092924937568 0.1305723559347009 -0.14509588834652257 -0.015278181541976557 -0.050666385495254623 0.18569465433352972 -0.38837101710185573 0.056240681532147022 -0.24525615112170002 0.18841213574173185 -0.1349350961223823 0.12377572911694204 -0.081229113770708017 -0.08274000034806317 -0.17862180901615304 0.096971957271678288 -0.16562565928323125
leaf_weight=39.41943013574928 18.18727731751278 101.87605613470078 24.113447309471667 105.94051847234368 167.51922174543142 43.152009899728 36.541176761500537 9.1817826312035304 17.809079607948661 13.470136106014253 8.4649497214704734 7.8256510673090807 68.046490121632814 15.417447114363311 45.693204963579774 45.614607083145529 10.964355009607969 4.3261584825813761
leaf_count=688 714 1354 431 2115 3776 409 453 58 140 96 69 91 811 100 421 684 110 26
internal_value=0 -0.0026526 -0.0164681 -0.028069 -0.00128219 0.0564425 0.0379097 -0.0421131 -0.145028 -0.0735964 0.0675797 0.111477 0.036218 0.0859073 -0.0403588 -0.0430343 -0.125215 0.155558
internal_weight=0 765.376 620.348 568.776 462.836 145.028 238.738 64.5744 40.461 31.2792 174.163 51.5712 137.622 83.4639 54.1582 224.098 56.579 43.7456
internal_count=12546 11832 10069 9264 7149 1763 2579 725 294 236 1854 805 1401 911 490 4570 794 714
is_linear=0
shrinkage=0.2


Tree=26
num_leaves=19
num_cat=0
split_feature=20 60 27 31 11 2 27 2 16 23 10 4 1 8 29 36 62 8
split_gain=14.6859 15.7422 15.8922 15.094 12.7652 14.385 15.8377 12.02 12.241 12.2972 17.7973 15.6298 14.5161 14.1442 12.5001 11.0339 10.4334 10.2512
threshold=0.89081664451598164 0.37596321084127587 -0.098257580981621392 -0.26442807467748791 0.023555316028730459 -0.031946879197721621 -0.057418893274893114 -0.032762534520915272 -0.1350845482297737 -0.045659553428108603 -0.030093745776268905 -0.12888748375118816 -0.0255507515335535 1.2997144903383804 -0.063129584790218282 -0.028652047470837379 0.43843384311027706 -0.28006989071425115
decision_type=2 2 2 2 2 2 2 2 2 2 2 2 2 2 2 2 2 2
left_child=1 2 3 -1 5 6 7 -4 -9 11 15 14 -13 -12 17 -11 -8 -10
right_child=-2 -3 4 -5 -6 -7 16 8 9 10 13 12 -14 -15 -16 -17 -18 -19
leaf_value=0.11514832131857303 0.10449575500118685 -0.17998762640581026 0.031303370138335444 -0.1280256283121638 0.14295163468387295 -0.1371456990201117 0.099445461191146944 0.24584448673644199 0.089361295040391919 -0.15331645948274911 -0.062277209702945382 0.1091217712720271 -0.14739724969354534 0.30840467963804746 0.50456488538374911 0.086820730371210034 -0.24125166211358451 -0.10598019044959049
leaf_weight=12.214628448244182 51.629853261634707 20.207138240337372 205.84634192753583 62.215743246022612 27.491359874606133 27.709046104457229 89.394597226753831 6.1189904063940039 12.861568025778977 78.162704896647483 9.7188160954974609 55.86781503027305 10.4792890753597 7.1443327199667683 1.5236168652772892 8.4844392999075335 3.7460815012454978 65.330602603033185
leaf_count=518 1017 199 2429 1320 628 681 1005 44 245 1224 137 635 164 50 6 80 33 2131
internal_value=0 -0.00601072 -0.000873313 -0.0881188 0.00977422 0.00348765 0.010513 -0.00466873 -0.0336283 -0.0404803 -0.093217 -0.00310745 0.0686055 0.0947679 -0.0627938 -0.129802 0.0857428 -0.0738491
internal_weight=0 704.517 684.31 74.4304 609.88 582.388 554.679 461.539 255.692 249.573 103.51 146.063 66.3471 16.8631 79.7158 86.6471 93.1407 78.1922
internal_count=12546 11529 11330 1838 9492 8864 8183 7145 4716 4672 1491 3181 799 187 2382 1304 1038 2376
is_linear=0
shrinkage=0.2


Tree=27
num_leaves=19
num_cat=0
split_feature=44 20 19 61 61 61 59 9 35 8 41 33 21 2 33 0 27 32
split_gain=12.0838 13.4253 11.7615 11.143 14.9391 16.664 19.0914 14.5642 12.0381 10.8965 10.7549 10.6864 9.63574 12.1652 12.7294 12.725 10.1339 9.60173
threshold=-0.024047276760993799 -0.61033978529121857 1.1555512472507796 -0.23766308445398485 -0.23759332376028527 -0.23741892202603646 0.14679388017869779 -1.0375514917191626 0.056705393758430513 -0.031180543461438625 -0.020428972322831838 -0.054896961764580622 -0.022426395318855121 -0.032469794142886206 0.24747191334664145 -0.019910813691837396 -0.091451133030500023 -0.22326533918639072
decision_type=2 2 2 2 2 2 2 2 2 2 2 2 2 2 2 2 2 2
left_child=1 -1 3 7 -5 6 -6 -3 12 11 17 -8 -7 14 16 -16 -14 -2
right_child=10 2 -4 4 5 8 9 -9 -10 -11 -12 -13 13 -15 15 -17 -18 -19
leaf_value=0.11587090819685029 0.17303088538743286 -0.18540781268887621 0.17457335109661765 -0.1237252131904259 0.27639496058824287 -0.068691679604999931 0.14319181375737886 0.22532674312770476 0.3344989684171264 -0.017133127342504936 -0.22942922654205977 -0.14985274972409587 -0.01979919000671955 -0.17288354474545323 0.051487657263725686 -0.14226234336904833 0.1262553259775091 0.036173012015013627
leaf_weight=32.713404397945851 30.80699606705457 4.5025366861373213 12.723170267418025 55.197792033199221 12.658655930310486 210.46469316165894 37.128774124197662 14.817398564890025 3.4455805830657473 97.183864173479378 4.661909405142068 5.74830063804984 31.570674327667803 15.034523318056015 24.198487481102347 30.839968568645418 47.731753021478653 61.322216475848109
leaf_count=955 543 32 617 1754 131 3776 678 436 23 958 315 50 393 249 159 278 657 542
internal_value=0 -0.00891388 -0.0156808 -0.01978 -0.0248326 -0.014254 0.0411791 0.129605 -0.0375572 0.0199204 0.0669399 0.103905 -0.0411197 -0.00227179 0.0168219 -0.0570772 0.0681103 0.0819368
internal_weight=0 635.96 603.246 590.523 571.203 516.005 152.72 19.3199 363.286 140.061 96.7911 42.8771 359.84 149.375 134.341 55.0385 79.3024 92.1292
internal_count=12546 11146 10191 9574 9106 7352 1817 468 5535 1686 1400 728 5512 1736 1487 437 1050 1085
is_linear=0
shrinkage=0.2


Tree=28
num_leaves=19
num_cat=0
split_feature=7 9 15 41 35 59 20 7 34 4 52 27 60 27 19 34 33 5
split_gain=12.0692 14.1925 15.5864 18.6688 15.2014 15.2199 15.0063 13.7484 13.9042 16.9198 13.3716 12.7364 12.619 12.502 14.9041 11.8861 11.5112 9.12998
threshold=3.5171233537526549 -1.5951064782141502 -0.091308775117398683 -0.0094473815102356241 -0.020707542743980838 0.47631708450902466 0.29030625511262642 -0.18512145034760616 -0.034161106366066389 -0.12888748375118816 0.011128180154342606 -0.054015669299332429 0.16838425548254141 -0.094854357006060708 0.26684316192308866 -0.033952808860163892 -0.24896972707931192 -0.0089282689356829092
decision_type=2 2 2 2 2 2 2 2 2 2 2 2 2 2 2 2 2 2
left_child=1 10 3 -3 5 6 7 8 9 -4 -1 -9 15 -14 17 -6 -17 -15
right_child=-2 2 4 -5 12 -7 -8 11 -10 -11 -12 -13 13 14 -16 16 -18 -19
leaf_value=0.15276945042558709 -0.17853446522210381 0.085954105022475066 -0.075300493897156706 -0.16540408303953683 -0.0240751088932049 -0.20783770095099785 0.1370890668126756 -0.14341354366494527 0.072393111870589277 0.24027384610152025 -0.16427777071688471 0.04186849219688802 -0.16725440489741103 -0.075917691542686683 0.23928093085570021 0.37136618851244629 -0.032279030759167361 0.2706873933397495
leaf_weight=40.667959657032043 14.647494354750959 114.13847818039358 61.91450922191143 13.184525386895983 37.710454580839723 12.19677197979763 38.155892972368747 41.441164377145469 116.24219514150172 7.63390730600804 6.1220632158219805 23.11925086285919 50.84803236881271 108.13103198027238 6.7788891945965579 6.9262346187606454 4.7739273970946652 3.1278385594487181
leaf_count=762 202 1526 1842 918 621 166 675 673 2201 86 79 274 920 1287 169 83 40 22
internal_value=0 0.00491986 -0.00278048 0.0599255 -0.0181637 0.0109999 0.0202514 0.00244422 0.0300724 -0.0406618 0.111287 -0.0770636 -0.0583367 -0.0843463 -0.0486313 0.030564 0.20667 -0.0661735
internal_weight=0 693.113 646.323 127.323 519 300.704 288.507 250.351 185.791 69.5484 46.79 64.5604 218.296 168.886 118.038 49.4106 11.7002 111.259
internal_count=12546 12344 11503 2444 9059 5917 5751 5076 4129 1928 841 947 3142 2398 1478 744 123 1309
is_linear=0
shrinkage=0.2


Tree=29
num_leaves=19
num_cat=0
split_feature=60 20 23 4 16 62 8 62 59 1 34 1 21 43 0 60 22 26
split_gain=9.96488 10.4247 11.3024 17.5023 17.2297 16.3837 17.8015 14.3519 12.4476 11.3518 11.1576 13.5147 10.8177 10.7581 10.7295 9.76666 9.00896 8.85763
threshold=0.50525053451184743 0.35359931913068648 -0.039554630224958136 -0.12888748375118816 -0.13434759651516262 -0.25830110481834628 -0.26077642160706699 -0.25816139108019792 0.16218776659353731 -0.025609661832736514 -0.034161106366066389 -0.025577159598704501 1.6882668636412779 -0.032530372033613801 -0.019896223022078798 0.20615299467694312 0.68763478146258983 -0.079764578168189215
decision_type=2 2 2 2 2 2 2 2 2 2 2 2 2 2 2 2 2 2
left_child=1 2 3 5 13 -1 -7 -8 14 -6 -9 17 -3 -4 15 -5 -11 -12
right_child=-2 12 4 8 9 6 7 10 -10 16 11 -13 -14 -15 -16 -17 -18 -19
leaf_value=-0.21653183636305903 -0.16769980981821841 0.085184500638181893 -0.0052314248214300699 0.1664243743439888 -0.28460352663615035 0.099951737995609163 0.1654719955223769 -0.11943993493720838 0.0052036630853755303 -0.087744123761093029 -0.14323956736730997 -0.15861542111023036 -0.20517325851053869 0.21128374090398383 -0.024138859635499856 -0.084936761030509692 0.22648149631469103 0.056017897948911433
leaf_weight=16.500424081925303 13.743847738951443 84.733207668177783 45.889212149195373 67.707017152803019 11.615890314336864 46.470295458566397 12.637963811401276 65.231342328712344 90.805727001745254 90.213359436718747 10.39339873800054 19.720769931562245 5.4634086540900162 11.474894675426183 19.217646701727062 6.8045554978307328 3.8035252299159756 63.109935324173421
leaf_count=629 153 1644 586 1585 220 837 228 1731 1069 1575 108 362 92 118 210 81 31 1287
internal_value=0 0.00433234 -0.00547903 0.0119188 -0.0501592 -0.0243931 -0.00982098 -0.0396361 0.0579769 -0.0980774 -0.055995 -0.0116008 0.0675969 0.0380794 0.109104 0.14347 -0.0750319 0.0278428
internal_weight=0 671.793 581.596 418.599 162.997 234.064 217.564 171.093 184.535 105.633 158.455 93.2241 90.1966 57.3641 93.7292 74.5116 94.0169 73.5033
internal_count=12546 12393 10657 8127 2530 5182 4553 3716 2945 1826 3488 1757 1736 704 1876 1666 1606 1395
is_linear=0
shrinkage=0.2


Tree=30
num_leaves=19
num_cat=0
split_feature=7 27 7 4 4 0 19 19 24 24 32 62 26 24 31 21 8 40
split_gain=9.22994 12.753 11.5282 12.2976 11.2259 16.6135 12.6789 15.7128 28.6622 13.6684 12.8137 12.5523 12.422 12.0752 13.8464 12.0315 10.2716 9.31522
threshold=2.5072671530662958 0.020855258163002752 -0.011690539683671298 1.0280687327695415 -0.028282595358081298 -0.019814183393053453 0.17291475526454039 0.31504007517862642 0.11086523648376205 0.12847461571723601 -0.041411491313917505 -0.25830110481834628 0.031757265847780485 0.080328635291319658 -0.25306578023912124 -0.015161371917930563 1.6144226618926301 -0.030422534276391182
decision_type=2 2 2 2 2 2 2 2 2 2 2 2 2 2 2 2 2 2
left_child=1 2 3 4 5 6 10 13 -9 -10 15 -11 -6 14 -8 -1 -4 -3
right_child=-2 17 16 -5 12 -7 7 8 9 11 -12 -13 -14 -15 -16 -17 -18 -19
leaf_value=0.040769310467789727 -0.15440634309805831 0.14039981436114032 -0.19419346621417935 0.23104495574462769 -0.080049945530553765 0.24177963640974737 0.057785932757926463 0.39754732612196414 -0.1760603951904216 -0.18662353780466034 -0.016075141953240245 0.10681908964599279 0.16440698426665265 -0.18804494517828793 -0.089814577136465207 0.1702663342561524 0.030198500105931017 -0.28981703351121541
leaf_weight=104.96703294268809 15.005517375655471 36.056936845649034 22.685568185290322 9.391685027163474 95.677965007489547 12.4308694913052 38.945833501406014 8.3754664696753007 13.308836093172429 7.0241450462490311 103.29343899083324 34.324673160677776 9.1060786405578238 26.776832284871489 73.216332803247496 39.497266336577013 12.74376108497381 2.1322063505649558
leaf_count=2076 233 611 630 72 1046 149 609 59 839 88 868 946 93 1487 1662 933 131 14
internal_value=0 0.00425101 -0.00274855 0.00405852 0.000298396 0.0136989 0.00739456 -0.0297985 0.053022 0.000228707 0.0377144 0.0569704 -0.0588058 -0.0673722 -0.0385636 0.0761744 -0.113481 0.11638
internal_weight=0 649.955 611.766 576.336 566.945 462.161 449.73 201.972 63.0331 54.6577 247.758 41.3488 104.784 138.939 112.162 144.464 35.4293 38.1891
internal_count=12546 12313 11688 10927 10855 9716 9567 5690 1932 1873 3877 1034 1139 3758 2271 3009 761 625
is_linear=0
shrinkage=0.2


Tree=31
num_leaves=19
num_cat=0
split_feature=18 18 18 18 23 21 20 27 8 62 61 7 14 60 28 20 20 18
split_gain=8.71555 11.0107 13.7304 22.2928 13.9916 12.0116 11.8822 11.0755 17.6879 12.1774 11.9871 10.606 10.3702 9.27174 8.53552 13.7062 8.33448 7.62878
threshold=-0.059237093780868659 -0.05302503852629719 -0.044000320744251011 -0.047595670272677394 -0.053026363826476249 -0.14205121378121718 -0.26481876152177902 -0.077838237128257257 1.4716409220573918 0.14503499299871239 -0.23609346884574536 -0.18343765509844176 -0.10087355777103947 0.16817374695010628 -0.087767963861091786 -0.37556005687498001 -0.36329166704011834 -0.055893648184681413
decision_type=2 2 2 2 2 2 2 2 2 2 2 2 2 2 2 2 2 2
left_child=-1 17 3 4 6 -4 -3 8 11 -10 -9 13 -6 -7 -13 -16 -15 -2
right_child=1 2 5 -5 12 7 -8 10 9 -11 -12 14 -14 16 15 -17 -18 -19
leaf_value=0.18425746051256478 0.012263400343298992 0.091583073803860812 -0.16599761780294697 0.16728136226906098 0.25381295053800512 0.2188173420431371 0.61771383523570256 0.12666144906043914 0.14280966887419347 -0.16920338131631946 0.0040786932103595531 -0.17975126423240495 -0.055364024434984727 0.16184194451278067 0.35256821027341378 -0.095226428315741657 -0.047025382608535421 -0.10412828118126929
leaf_weight=10.168905348516999 34.573917461559176 6.17955461749807 18.591747911646962 51.842722065746784 4.6644229702651492 6.0483147823251775 2.3776296847499889 45.390117075061426 32.711988390889019 5.9069154798053196 107.4384873220697 38.285918824607506 62.283383012749255 8.1360978595912439 3.3391701639629927 15.089182697003706 125.79175953031518 64.637287860736251
leaf_count=724 423 79 665 711 26 82 32 1163 343 89 1207 1297 1563 78 21 202 1819 2022
internal_value=0 -0.00238024 0.00898596 0.0662956 -0.00304259 -0.00895778 0.237769 -0.00143559 -0.0286627 0.095086 0.0404858 -0.0529599 -0.0338229 -0.023398 -0.125921 -0.0140872 -0.0343367 -0.0635672
internal_weight=0 633.289 534.077 127.348 75.505 406.73 8.55718 388.138 235.309 38.6189 152.829 196.69 66.9478 139.976 56.7143 18.4284 133.928 99.2112
internal_count=12546 11822 9377 2411 1700 6966 111 6301 3931 432 2370 3499 1589 1979 1520 223 1897 2445
is_linear=0
shrinkage=0.2


Tree=32
num_leaves=19
num_cat=0
split_feature=19 22 15 26 61 4 22 48 28 23 27 36 16 32 33 16 60 60
split_gain=8.11059 9.86806 11.7189 9.5927 8.87911 9.70545 11.117 9.87943 13.5024 10.8221 12.7353 12.6192 11.2848 9.34549 14.8358 9.11972 8.85323 16.8031
threshold=-0.75821217865117829 -0.089097890886130016 -0.091310502292095794 -0.068612393766592242 -0.23766308445398485 0.022019848838472151 1.7945570310314203 0.68605079614747078 -0.087767963861091786 -0.042554152886697942 -0.081241461103817955 -0.063665032120510626 -0.13493306854087936 -0.26097267805304974 -0.25219329166063337 -0.099269903839357146 0.16838425548254141 0.16820883170551212
decision_type=2 2 2 2 2 2 2 2 2 2 2 2 2 2 2 2 2 2
left_child=1 2 -1 4 -2 6 7 8 9 11 12 13 -11 14 16 -7 17 -6
right_child=3 -3 -4 -5 5 15 -8 -9 -10 10 -12 -13 -14 -15 -16 -17 -18 -19
leaf_value=0.12865838649672831 0.18562575181364854 -0.12117666862847772 -0.051935304561140309 0.050445878120830859 -0.065126237727503117 -0.22688321132960004 0.30262767775663252 -0.22526268524404439 0.15581208948428882 0.022211868964566325 0.10737320351007398 0.19725687666613273 -0.21592934649576848 -0.056928338308261751 0.15769291579948577 0.1047364754939806 -0.069712732063206426 0.16203570701879247
leaf_weight=20.003230361035094 9.2269681137986463 44.534095932263881 51.063077990198508 168.02710670651868 25.966548630269244 14.709637586493047 4.6334814722649744 8.2601549453102034 19.862398481927812 11.016529645072291 9.5521512872073782 12.679895965149624 28.68278244743124 91.101834081579 27.286524858092889 4.2829532390460363 48.826119103236124 26.133917770348489
leaf_count=732 420 548 965 2140 1170 147 84 114 208 172 279 187 1179 2209 723 45 841 383
internal_value=0 -0.0473604 -0.0011031 0.0113101 -0.00790506 -0.0132676 -0.00487022 -0.00947568 -0.00355611 -0.0148111 -0.0999587 0.00326531 -0.149845 -0.00795049 0.0268507 -0.152101 -0.0085238 0.0488196
internal_weight=0 115.6 71.0663 510.249 342.222 332.995 314.002 309.369 301.109 281.246 49.2515 231.995 39.6993 219.315 128.213 18.9926 100.927 52.1005
internal_count=12546 2245 1697 10301 8161 7741 7549 7465 7351 7143 1630 5513 1351 5326 3117 192 2394 1553
is_linear=0
shrinkage=0.2


Tree=33
num_leaves=19
num_cat=0
split_feature=27 15 62 50 23 59 52 40 61 35 21 20 33 61 60 60 60 34
split_gain=7.99023 7.7212 7.61423 7.71194 9.61573 9.93516 8.99632 7.64662 7.18866 7.83659 8.11367 9.32681 6.59882 8.13516 11.5849 10.3024 14.2172 12.3528
threshold=-0.098257580981621392 -0.091286780090672801 0.43843384311027706 -0.11108473684740254 -0.01990730649433663 0.32812480691820495 -0.015444744896358253 -0.030430026146818084 -0.23766308445398485 0.056705393758430513 1.6882668636412779 1.6305356565942457 0.26839797971026835 -0.23755844341343554 0.16841934023794727 0.16954205241093459 0.16820883170551212 -0.034135115415554508
decision_type=2 2 2 2 2 2 2 2 2 2 2 2 2 2 2 2 2 2
left_child=1 -1 3 6 -5 7 8 -6 -2 10 11 12 13 14 -10 16 17 -15
right_child=2 -3 -4 4 5 -7 -8 -9 9 -11 -12 -13 -14 15 -16 -17 -18 -19
leaf_value=0.013598538415171925 0.14395682092391837 -0.13081601496628237 -0.22279791720674635 0.21044184652579109 0.12943821731645486 -0.16796608687329873 -0.16858964410937771 -0.18054506623639605 -0.12195684504600855 0.33187570762072988 -0.29982745940199185 0.21436242936024455 -0.048234813201642024 -0.1078107571532982 0.065360168873944649 -0.01773745945733874 0.088473397681046881 0.16637586615361388
leaf_weight=26.020709054311737 14.875136376125736 34.36894256900996 5.656269329134374 16.451326230773702 22.172591746319089 8.1754745403304678 11.949386972934006 3.7166925435885778 38.025091654388234 2.8754449542611829 3.5662441099993876 8.2028675340116006 93.211832572938874 30.640904586296529 20.234710489166901 129.63829064625315 131.65571657032706 8.3673358000814897
leaf_count=1110 596 804 115 172 327 122 132 39 1661 17 64 388 893 1214 362 2259 2135 136
internal_value=0 -0.0685906 0.00805254 0.0104539 0.0848798 0.0242405 0.00283147 0.0849367 0.00708745 0.00272237 0.000680574 0.00301044 -0.00082708 0.011497 -0.0568982 0.024766 0.0570521 -0.0489972
internal_weight=0 60.3897 549.415 543.759 50.5161 34.0648 493.243 25.8893 481.294 466.418 463.543 459.977 451.774 358.562 58.2598 300.302 170.664 39.0082
internal_count=12546 1914 10632 10517 660 488 9857 366 9725 9129 9112 9048 8660 7767 2023 5744 3485 1350
is_linear=0
shrinkage=0.2


Tree=34
num_leaves=19
num_cat=0
split_feature=35 35 59 34 4 27 2 19 17 61 19 2 11 30 5 21 18 26
split_gain=7.65465 13.6315 13.6141 11.3642 9.05157 8.88373 8.66757 8.41036 10.5117 10.3541 10.4511 9.26308 10.9708 8.26253 8.65017 7.91157 7.60541 7.57391
threshold=-0.020707542743980838 -0.020707537904397003 0.16385950086483211 -0.034160987024042765 1.0000000180025095e-35 -0.084644685079378626 -0.032305389880131215 0.17291475526454039 0.13952473911872806 0.30823178391826961 -0.77779043003903248 -0.032761868360483393 -0.01476875903679957 -0.061847917312084701 -0.008928268935682989 -0.049739889774647238 -0.043171216123157642 -0.076047183367656895
decision_type=2 2 2 2 2 2 2 2 2 2 2 2 2 2 2 2 2 2
left_child=2 5 6 -3 -5 -2 7 9 11 10 -1 12 -9 14 -6 16 -12 -4
right_child=1 3 17 4 13 -7 -8 8 -10 -11 15 -13 -14 -15 -16 -17 -18 -19
leaf_value=-0.16934277709056708 -0.24842623931812624 -0.11092772240943527 -0.11584270078638584 0.042499827223232589 -0.096688741079573093 0.0087079193234597275 -0.11782055054115961 0.043754837124833107 0.46796230964130081 -0.10857074827090635 0.11890805591973408 -0.070605930551016868 0.62792572565809579 0.20964992214289119 0.16549546858051845 0.18083600358645713 -0.041148299781294535 -0.0043196851661397922
leaf_weight=5.1356919552199534 17.00970622734167 37.614553653867915 32.73582767334301 118.14471772662364 52.702576140640303 7.8570129042491308 11.823402288369833 48.637909785844386 1.9800736920442421 9.4521942462306452 40.500086073065177 39.279788506217301 1.3208547942340363 4.4992807512171558 5.5650239165406665 50.014877853682265 16.801468949764967 95.185544837731868
leaf_count=56 241 847 1028 1974 635 117 541 890 43 519 727 2527 33 50 59 1004 238 1017
internal_value=0 -0.0268705 0.0192348 -0.0109042 0.00989237 -0.167181 0.0488593 0.0581062 0.0121769 0.0924742 0.109373 0.00206364 0.0591997 -0.0514839 -0.071648 0.122711 0.0719777 -0.0328591
internal_weight=0 243.393 352.868 218.526 180.912 24.8667 224.946 213.123 91.2186 121.904 112.452 89.2386 49.9588 62.7669 58.2676 107.316 57.3016 127.921
internal_count=12546 3923 8623 3565 2718 358 6578 6037 3493 2544 2025 3450 923 744 694 1969 965 2045
is_linear=0
shrinkage=0.2


Tree=35
num_leaves=19
num_cat=0
split_feature=22 20 22 9 27 9 18 59 28 7 23 18 23 18 59 19 0 61
split_gain=7.17838 7.71557 10.8002 10.0435 12.5313 11.6078 11.2141 14.6264 9.28826 12.936 10.3207 16.0805 14.2273 11.364 8.91412 8.7478 8.6607 8.10451
threshold=-0.17841919054314645 -0.19096892626966758 -0.13716696257826994 0.034488620801878353 -0.094854357006060708 -1.3313359995620717 -0.044000320744251011 0.14661974119210455 -0.098985025474439117 -0.16491590735763317 -0.053781046755244283 -0.055893648184681413 -0.053777829642195261 -0.054710793468625438 0.33683175624786538 0.1764845538935865 -0.019910969764005255 0.27335143706850412
decision_type=2 2 2 2 2 2 2 2 2 2 2 2 2 2 2 2 2 2
left_child=-1 2 8 5 -5 14 7 -7 9 10 11 -2 -12 -14 17 -15 -8 -3
right_child=1 3 -4 4 -6 6 16 -9 -10 -11 12 -13 13 15 -16 -17 -18 -19
leaf_value=0.18124496951758698 0.033467486985680521 0.18722717335171157 -0.0596264178101941 -0.057275084183346675 0.12329143156489145 -0.19486244107618222 -0.0024865461663243636 0.19319691489128157 0.1606110683579986 -0.17030330756938605 0.33177949480992108 -0.25684584465732679 -0.15589296781048614 0.059128719757511675 -0.13385400779772458 0.47470994130637889 -0.10166738220045711 -0.18833690451460744
leaf_weight=8.6465922547504288 22.383942311396822 24.651179775595669 162.0059160196688 20.305623280466534 63.298492069472559 4.9965003612451282 82.00790260406211 17.465739889070392 15.930684335529802 15.825176478363572 7.3814898864366105 11.579898092430083 10.100176134146741 47.063543882919483 5.1888498114421955 2.1171781672164789 61.724275578162633 2.5346861397847524
leaf_count=624 329 327 4032 366 1706 690 1101 201 200 428 66 496 193 814 70 31 826 46
internal_value=0 -0.00234669 -0.0249978 0.0212849 0.0794357 -0.00319847 -0.0245409 0.106877 0.0173799 -0.00221432 0.0242205 -0.0655142 0.0699395 0.0373359 0.106362 0.0770191 -0.0450787 0.152211
internal_weight=0 576.561 294.388 282.173 83.6041 198.569 166.194 22.4622 132.382 116.451 100.626 33.9638 66.6624 59.2809 32.3747 49.1807 143.732 27.1859
internal_count=12546 11922 6589 5333 2072 3261 2818 891 2557 2357 1929 825 1104 1038 443 845 1927 373
is_linear=0
shrinkage=0.2


Tree=36
num_leaves=19
num_cat=0
split_feature=7 27 36 5 60 24 60 60 60 22 60 0 33 16 10 25 8 61
split_gain=6.3399 8.92922 8.78267 7.11632 7.2501 7.66028 6.65752 9.70524 17.4465 14.0503 12.6065 8.9597 8.49901 7.75026 12.0966 14.3256 9.28517 7.65367
threshold=0.45724643720861874 0.020855258163002752 0.17072744845091306 -0.0089282689356811763 0.16817374695010628 -0.43183474582745157 0.16820883170551212 0.16838425548254141 0.16841934023794727 1.7945570310314203 0.16954205241093459 -0.019911382004529257 0.40969159398588711 -0.12829563310950778 -0.032137256794025605 -0.18779696639951371 1.1565598710325693 0.27335143706850412
decision_type=2 2 2 2 2 2 2 2 2 2 2 2 2 2 2 2 2 2
left_child=1 3 -3 4 -1 -6 -7 12 9 11 -10 -9 -8 17 -15 -16 -17 -12
right_child=-2 2 -4 -5 5 6 7 8 10 -11 13 -13 -14 14 15 16 -18 -19
leaf_value=0.11457873195591615 -0.096304371913288819 0.15298433305623016 -0.3147463335059863 0.27884891294776604 -0.18167086560351092 -0.083814046347694446 0.084686761219643247 -0.065473624343918568 0.085825498152320434 0.62821240901483455 0.020549327764495261 -0.22851167990009713 -0.12538693746299098 -0.15300763963542197 0.62676320148213893 -0.084789946634342861 0.15723463171405741 -0.15525091160143506
leaf_weight=20.265864335931838 25.909219445777126 23.536957025295127 1.7233902500011016 3.6170606203377238 9.8955107980873418 38.406293262261897 76.788488168036565 39.033595827873796 65.685708780772984 1.0161586245521892 157.54817357019056 20.59714440908283 8.5624303789809328 34.587735275155865 1.4751875491347188 20.966733665554788 9.0893419813364726 10.570442925440146
leaf_count=734 553 543 14 33 182 2150 1494 941 1344 11 2712 337 98 722 25 395 94 164
internal_value=0 0.00496054 0.121073 -0.000700558 -0.0026659 -0.00747358 -0.00391447 0.00296712 -0.0113882 -0.109222 0.00839462 -0.121789 0.0636121 -0.0133188 -0.071329 0.0182671 -0.0115986 0.0094959
internal_weight=0 543.366 25.2603 518.106 514.489 494.223 484.327 445.921 360.57 60.6469 299.923 59.6307 85.3509 234.238 66.119 31.5313 30.0561 168.119
internal_count=12546 11993 557 11436 11403 10669 10487 8337 6745 1289 5456 1278 1592 4112 1236 514 489 2876
is_linear=0
shrinkage=0.2


Tree=37
num_leaves=19
num_cat=0
split_feature=20 25 16 46 15 7 28 61 22 18 24 34 59 34 62 8 59 22
split_gain=6.663 7.81193 7.64571 7.44617 7.28115 10.0374 12.2705 8.85847 6.97859 7.6037 7.71049 7.20593 6.88898 6.83534 6.79605 13.7952 8.9552 6.73956
threshold=0.41875187338694692 -0.085942103452888594 -0.13419267639856824 1.0000000180025095e-35 -0.091310617679681516 -0.14976175011515341 -0.051312513617712961 0.45124120600230794 -0.16108489311429219 -0.05302503852629719 -0.31977982608895572 -0.030095383614404964 0.18219633615309691 -0.034149947831904878 -0.25627525561519499 0.93207100068310433 0.14661974119210455 1.7945570310314203
decision_type=2 2 2 2 2 2 2 2 2 2 2 2 2 2 2 2 2 2
left_child=1 4 -2 13 -1 8 7 -7 -6 10 -10 -12 -5 17 16 -16 -11 -3
right_child=2 3 -4 12 5 6 -8 -9 9 14 11 -13 -14 -15 15 -17 -18 -19
leaf_value=0.077901121415387686 0.1510545886193346 -0.020048671638509572 0.011293002871624713 0.22973811415680268 0.12115286834514916 -0.18077969225565871 0.099441499338801753 0.50814824023412275 -0.23241065750218259 -0.11005614905132897 -0.052085574744318908 0.26141083779438529 -0.15399959902672378 -0.1100257197467765 -0.037213380905083179 0.11818847215373772 0.10274577119494657 0.38205889738894039
leaf_weight=48.249901599716395 23.384259413345717 32.403536118799821 47.379093175404705 6.415466041537 20.128128704498522 29.036297343671325 9.3594346125610155 0.76627341937273641 9.1430455520749074 9.2586337996181083 48.65149534563534 3.1209553750231853 2.6419294499792159 64.430513475439511 116.35104954126291 28.433298692107201 54.310348063474521 1.7577136503532518
leaf_count=1732 720 358 934 71 447 886 119 23 78 807 2049 19 55 1124 1595 203 1308 18
internal_value=0 -0.00822184 0.0574782 -0.0557375 0.00535273 -0.00530123 -0.100329 -0.163066 0.00755817 -0.000933155 -0.0630895 -0.0331873 0.117807 -0.0716805 0.0172393 -0.00669498 0.0717518 0.000641144
internal_weight=0 484.458 70.7634 107.649 376.809 328.559 39.162 29.8026 289.397 269.269 60.9155 51.7725 9.0574 98.5918 208.353 144.784 63.569 34.1612
internal_count=12546 10892 1654 1626 9266 7534 1028 909 6506 6059 2146 2068 126 1500 3913 1798 2115 376
is_linear=0
shrinkage=0.2


Tree=38
num_leaves=19
num_cat=0
split_feature=27 61 20 20 48 18 9 18 26 31 11 15 2 41 19 61 21 10
split_gain=5.57625 6.0466 5.23573 11.5086 10.7516 8.35096 7.7724 8.09403 8.63826 8.65093 8.65067 7.72783 8.60948 7.30844 7.22451 8.95224 7.27124 7.49576
threshold=-0.098257580981621392 0.45821727537226103 -0.37563441132130065 -0.27866349949786845 1.458529276897383 -0.049161282970481258 0.45237976335289837 -0.044000320744251011 -0.076047183367656895 -0.21752290151927503 -0.028890107697069626 -0.091006061289311116 -0.032716035850755658 -0.020783962322680573 0.17291867606054115 -0.23752356306658576 -0.1056307745772377 -0.021741527611582889
decision_type=2 2 2 2 2 2 2 2 2 2 2 2 2 2 2 2 2 2
left_child=-1 2 4 14 5 -2 7 11 -9 -10 -11 -5 -13 -8 16 -16 17 -4
right_child=1 -3 3 6 -6 -7 13 8 9 10 -12 12 -14 -15 15 -17 -18 -19
leaf_value=-0.06061701018104914 0.0031473054254639778 -0.22572290045320997 -0.17175439531797765 0.20950925527334216 -0.23671074633390454 0.12246353922598463 0.10536389443650958 -0.089220987665716678 0.10589444281412026 -0.043404386270883055 0.098130372749280173 -0.027479160676666711 0.32506605323945803 -0.10816416922688599 -0.09134176491588257 0.156218720361608 -0.014577292085222328 0.087597561225958701
leaf_weight=54.415902594919316 45.12447770847939 4.4301656351890406 39.543003077153116 13.174541949294506 4.9678747837897381 48.880563315120526 55.613763638073578 47.671399054233916 29.344293347559869 89.825100923189893 21.386280177626759 20.97113161359448 3.1926393683534142 7.2472653602017081 11.360820056288505 12.029958500061182 29.549419601564296 5.0238788039423516
leaf_count=1914 752 95 902 154 56 809 1692 826 645 1020 225 1065 35 356 1262 172 476 90
internal_value=0 0.00687231 0.00899733 -0.00152693 0.0500355 0.0651891 0.018554 0.0012222 -0.0156516 0.0093005 -0.0161868 0.086285 0.0191009 0.0807462 -0.0609265 0.0359795 -0.0915096 -0.142518
internal_weight=0 489.337 484.906 385.933 98.9729 94.005 288.426 225.565 188.227 140.556 111.211 37.3383 24.1638 62.861 97.5071 23.3908 74.1163 44.5669
internal_count=12546 10632 10537 8920 1617 1561 6018 3970 2716 1890 1245 1254 1100 2048 2902 1434 1468 992
is_linear=0
shrinkage=0.2


Tree=39
num_leaves=19
num_cat=0
split_feature=2 10 25 49 21 59 61 25 24 61 19 19 10 14 9 48 15 19
split_gain=5.58096 6.48982 6.84787 7.95639 6.44535 11.3085 8.38026 8.13801 8.15298 7.51847 7.48783 9.22653 7.08158 6.89766 6.81157 9.33799 7.73467 6.70073
threshold=-0.031946879197721621 -0.021741527611582889 -0.18779696639951371 -0.019805779568270676 -0.0098445639425310798 0.49251201026219299 0.27335143706850412 -0.089364044857913119 0.46402789066354827 -0.23766308445398485 0.16292933468973037 0.17291867606054115 -0.023304886044880867 -0.10022193682439702 -0.62109649459357408 1.458529276897383 -0.091287866030779444 -0.57153665284830624
decision_type=2 2 2 2 2 2 2 2 2 2 2 2 2 2 2 2 2 2
left_child=1 4 -3 -4 7 6 10 9 -9 -1 13 -12 14 -6 15 16 -11 -18
right_child=-2 2 3 -5 5 -7 -8 8 -10 12 11 -13 -14 -15 -16 -17 17 -19
leaf_value=0.20489419343051965 -0.094377619288008641 0.36780932503168362 -0.014930481877523938 0.22374875895184621 0.19289423555096952 -0.1235624503570191 -0.095688705363027579 -0.1087603082596371 0.15628007054881421 0.16264147357505571 -0.16431751427868058 0.054740071230033042 -0.24226515014133285 0.065563410107488715 -0.023268275429948759 -0.28361975440664816 -0.11434612705730399 0.064934383101423063
leaf_weight=6.816138297202996 23.894936041207984 3.2972259194357347 17.420028706081215 8.2240305549930763 22.714041361585259 16.732691032346338 14.164806896005755 52.583580398815684 5.0920701802242538 22.286599378334358 10.847095140488817 26.43275533861015 5.0566731544677159 67.853889355668798 183.63348288473208 3.1850659504998466 11.354867886751888 31.397265830077231
leaf_count=322 840 52 341 109 425 212 201 880 121 595 194 798 727 1313 4499 32 104 781
internal_value=0 0.00452132 0.0964981 0.0616138 -0.00102261 0.031949 0.0502722 -0.0173076 -0.0853604 -0.00242501 0.0664439 -0.0089978 -0.00792536 0.0974974 -0.00322039 0.0507412 0.0671154 0.0173179
internal_weight=0 509.092 28.9413 25.6441 480.151 158.745 142.013 321.406 57.6757 263.73 127.848 37.2799 256.914 90.5679 251.857 68.2238 65.0387 42.7521
internal_count=12546 11706 502 450 11204 3143 2931 8061 1001 7060 2730 992 6738 1738 6011 1512 1480 885
is_linear=0
shrinkage=0.2


Tree=40
num_leaves=19
num_cat=0
split_feature=18 19 27 19 4 9 59 23 24 60 17 17 13 59 1 33 27 32
split_gain=5.13078 4.99861 5.33795 9.22753 8.07372 7.49113 7.31257 10.0937 7.54225 6.47976 7.96124 7.72889 6.11248 6.056 6.00346 8.41698 7.58142 7.15867
threshold=-0.059237093780868659 1.1555512472507796 -0.084644685079378626 -0.75790588563144123 0.90231262227815756 -0.57983021787889333 0.14679388017869779 -0.043177125414420668 0.11086523648376205 0.16834917072713554 -0.14070769705752914 -0.1398018150704198 -0.15162164425609037 0.14721181374652151 -0.025288702271670436 -0.075308612598459182 0.092322961649777255 -0.24540691077114565
decision_type=2 2 2 2 2 2 2 2 2 2 2 2 2 2 2 2 2 2
left_child=-1 2 3 4 -2 -5 8 9 -7 10 -8 -12 -11 -13 15 -4 -16 -18
right_child=1 -3 14 5 -6 6 7 -9 -10 12 11 13 -14 -15 16 -17 17 -19
leaf_value=0.17232821086564312 -0.14122970489971567 0.15643886388906258 0.10127447988211238 0.03281393479377382 0.33334063346083842 0.091602550617964476 0.19954026430570213 -0.17582558721189545 -0.091337751878007536 -0.10744999396414284 -0.24627351078036988 -0.11776316341217288 0.00016501980712137462 0.17694349700161294 -0.10489331876877875 0.0011005010576499847 -0.045380578791769495 0.18258325411420473
leaf_weight=6.8341741774929678 31.845669772068504 7.8331856682198113 58.67163675208576 108.17189088370651 1.5015570675022889 30.51402611436788 9.6688971696421522 23.560264034196734 12.794201993849127 46.294779385090806 4.688019055058251 4.6748374543385562 38.811617304105312 6.9143797027645633 28.520139706670307 78.36205647746101 13.152182092657315 9.4830254956614208
leaf_count=724 846 714 1708 1901 20 705 155 1143 455 898 72 561 993 115 419 735 203 179
internal_value=0 -0.00210886 -0.0045554 -0.0202969 -0.119861 -0.00869166 -0.0339261 -0.0569243 0.037558 -0.0316989 0.0557975 -0.0295876 -0.0583736 0.0580653 0.0221649 0.0439905 -0.0363009 0.0501249
internal_weight=0 515.462 507.629 319.44 33.3472 286.093 177.921 134.613 43.3082 111.053 25.9461 16.2772 85.1064 11.5892 188.189 137.034 51.1553 22.6352
internal_count=12546 11822 11108 7864 866 6998 5097 3937 1160 2794 903 748 1891 676 3244 2443 801 382
is_linear=0
shrinkage=0.2


Tree=41
num_leaves=19
num_cat=0
split_feature=44 44 43 48 24 20 16 61 8 22 33 0 5 12 22 45 4 18
split_gain=4.55596 8.95603 7.66877 6.44032 6.59405 5.72586 7.14313 6.16117 5.61941 5.56642 6.63367 5.88463 5.09294 5.70825 5.02778 7.34143 4.96287 5.7307
threshold=-0.024250540628227815 -0.024250604456974547 -0.032840997912717065 -0.02616544143833905 0.51124154279088974 -0.0066309271895167851 -0.13254516060451205 0.27335143706850412 0.44731048145105895 -0.14665860342845302 2.1352068234226542 1.0000000180025095e-35 -0.0089282689356762618 -0.11651154546589219 -0.024893155299483709 -0.021624081947060392 -0.053433817456358008 -0.049161282970481258
decision_type=2 2 2 2 2 2 2 2 2 2 2 2 2 2 2 2 2 2
left_child=1 3 -2 4 9 6 14 -7 -9 10 16 -11 13 -8 -4 -16 17 -1
right_child=2 -3 5 -5 -6 7 12 8 -10 11 -12 -13 -14 -15 15 -17 -18 -19
leaf_value=0.041795914740774626 0.27474578364283347 -0.15811239704881999 0.088835679220531927 -0.19881387905714509 0.15369415468113762 0.12714051406502691 -0.24980549599228713 0.25986794354666404 -0.23078541187233748 -0.016466972497605599 -0.32995878027483649 0.26280702096042968 0.2802741633430354 -0.037537741309915516 -0.2248623190782556 0.16019654469167577 -0.068341272793920035 0.1937429099650923
leaf_weight=27.678761505172584 5.2432603224879122 15.48102142382413 25.580213350243866 6.6133092630188903 10.886197628220541 28.642681870725937 8.6476388880983031 1.2326047152746458 3.8501143394969404 326.57036709616659 1.7280093878507603 3.0461446109693489 1.3157320041209448 12.240339162293822 5.5584877231158298 3.0768828510772437 8.8200186892645416 15.481935748015532
leaf_count=896 59 330 599 114 679 601 127 11 53 8147 15 40 9 241 46 32 178 369
internal_value=0 -0.00884701 0.0396117 -0.00308194 0.000201666 0.0259352 -0.0130361 0.0911304 -0.111798 -0.00415742 0.0555484 -0.0138861 -0.101377 -0.125417 0.0442911 -0.0876614 0.0683639 0.0963
internal_weight=0 416.306 95.388 400.825 394.211 90.1447 56.4193 33.7254 5.08272 383.325 53.7087 329.617 22.2037 20.888 34.2156 8.63537 51.9807 43.1607
internal_count=12546 10768 1778 10438 10324 1719 1054 665 64 9645 1458 8187 377 368 677 78 1443 1265
is_linear=0
shrinkage=0.2


Tree=42
num_leaves=19
num_cat=0
split_feature=2 15 56 9 62 0 19 26 35 0 14 12 2 0 19 20 34 0
split_gain=4.48584 4.78543 5.68147 5.48586 7.02986 8.35949 7.81499 7.38586 8.51165 7.17305 6.89309 8.20574 6.56814 6.2769 7.27766 5.67547 6.80944 4.93165
threshold=1.0000000180025095e-35 -0.091308775117398683 0.20503450128728615 -1.5951064782141502 -0.25634511248426922 -0.019911547387266412 0.27829550662895675 -0.079764578168189215 -0.020693436836461791 -0.01991154734407842 -0.10086931652546365 -0.12162057734620633 -0.032718273966014871 -0.019911547394401288 -0.6116091339900831 -0.25333429940473268 -0.034161505244440303 -0.019910206983288645
decision_type=2 2 2 2 2 2 2 2 2 2 2 2 2 2 2 2 2 2
left_child=1 2 -1 -3 5 6 -5 13 10 -7 -9 -12 -8 14 -6 -11 -17 -13
right_child=-2 3 -4 4 7 9 12 8 -10 15 11 17 -14 -15 -16 16 -18 -19
leaf_value=0.057574687902394533 -0.2080152736213442 0.091348251042791123 -0.097701073362671517 0.13189170346621198 0.11873598549043103 -0.31661829251719192 0.054816570353182804 -0.21528669415108181 0.085527255285129361 -0.082943264027424649 0.20798010289316307 -0.015849567991050566 -0.18524138813926047 -0.19734988124574337 -0.15178360146146305 0.56290897907052861 0.030798392211618605 -0.095674700159371934
leaf_weight=88.933496052224655 4.1067680324194944 21.095029087155126 10.543121252325362 39.215265259263106 7.4249680969514875 3.2564884448656803 15.036963993159588 7.9623623837251207 27.610779265989549 23.748673203866929 5.8438698195386669 146.54392673971597 6.5426453199470425 18.46755427820608 8.5684069418348354 0.99675297341309743 27.577110811427701 39.249651697929949
leaf_count=2278 97 298 795 1073 114 40 587 60 330 673 55 2232 1812 638 207 10 643 604
internal_value=0 0.00187038 0.0411176 -0.00791111 -0.0134498 0.0274463 0.0786986 -0.0316376 -0.0185518 -0.0286159 -0.0329491 -0.0253732 -0.0179658 -0.117916 -0.0261941 -0.010691 0.0493602 -0.032713
internal_weight=0 498.617 99.4766 399.14 378.045 116.374 60.7949 261.672 227.211 55.579 199.6 191.637 21.5796 34.4609 15.9934 52.3225 28.5739 185.794
internal_count=12546 12449 3073 9376 9078 4838 3472 4240 3281 1366 2951 2891 2399 959 321 1326 653 2836
is_linear=0
shrinkage=0.2


Tree=43
num_leaves=19
num_cat=0
split_feature=60 21 7 62 27 15 16 58 13 37 20 2 19 15 18 22 8 32
split_gain=4.00818 5.78794 6.33155 6.24091 6.1438 5.7433 7.06563 5.85568 4.96014 4.83515 4.7842 6.54589 5.66108 8.49269 6.9109 6.68474 6.00673 5.40592
threshold=0.50525053451184743 0.084747172876386487 0.45724643720861874 0.14503499299871239 0.58579043810607734 -0.091027254081163023 -0.099269903839357146 -0.10756558970530121 -0.0038322282859387163 2.9227087220750114 -0.38791319575212524 -0.032747675115500689 -0.61063486176031068 -0.091296714267163043 -0.055708864742954438 -0.15325058566414668 1.8519932039809961 -0.21244240556730162
decision_type=2 2 2 2 2 2 2 2 2 2 2 2 2 2 2 2 2 2
left_child=1 2 4 5 10 6 -3 -8 -5 -4 11 12 13 16 -14 -15 -1 -12
right_child=-2 3 9 8 -6 -7 7 -9 -10 -11 17 -13 14 15 -16 -17 -18 -19
leaf_value=0.092965609124538537 -0.1304818910041913 0.1219614492478258 -0.18424355033854536 -0.08822206962623394 0.38978871688079897 -0.020273121618939623 -0.30123227535470848 0.16795870907487817 0.1555584750595827 0.11244405762373638 0.007595309696812217 0.14427301059853198 -0.021562770372473661 -0.02481098380886701 0.1791391156252875 -0.23516376040465006 -0.34880332686698456 -0.048747498815815915
leaf_weight=18.062469606753442 9.2380343446275202 55.311091075709555 12.926439745700916 19.463829140178863 1.581155631225555 20.634040601435117 2.999078059801831 1.6490158094093201 4.0297390180639914 2.6471683799754819 147.64031607768266 17.582626539748162 13.643550160690213 14.264005809498487 13.808011985151095 10.484828926972112 1.3211928191594768 126.46200512669748
leaf_count=835 153 1244 363 340 17 482 47 17 49 32 5787 274 247 304 191 138 10 2016
internal_value=0 0.00250698 -0.00892719 0.0442974 -0.00359643 0.0707386 0.102059 -0.134776 -0.0464076 -0.133813 -0.00530867 0.034933 0.00807664 -0.0362817 0.0793894 -0.113927 0.0628546 -0.0183995
internal_weight=0 484.511 380.424 104.087 364.85 80.5932 59.9592 4.64809 23.4936 15.5736 363.269 89.1667 71.5841 44.1325 27.4516 24.7488 19.3837 274.102
internal_count=12546 12393 10214 2179 9819 1790 1308 64 389 395 9802 1999 1725 1287 438 442 845 7803
is_linear=0
shrinkage=0.2


Tree=44
num_leaves=19
num_cat=0
split_feature=40 18 27 13 25 19 23 17 23 23 21 16 26 27 60 50 60 2
split_gain=3.70154 3.93127 3.95641 7.96888 8.66834 6.71094 6.03126 9.24282 5.88047 5.72633 5.3576 5.31643 5.28777 5.13721 6.24652 5.81219 6.45101 5.76085
